svm_type c_svc
kernel_type polynomial
degree 5
gamma 0.10000000000000001
coef0 0
nr_class 2
total_sv 1260
rho 4.5001325177728377
label 1 -1
nr_sv 637 623
SV
59049 1:-1 2:-1 3:1 4:0.337838 5:0.294118 6:-0.769912 7:-0.458474 8:-0.534633 9:-0.531271 10:-0.600399 
24315.017654235689 1:1 2:-1 3:-1 4:0.608108 5:0.563025 6:-0.707965 7:-0.0168231 8:-0.0450572 9:-0.246873 10:-0.405082 
11195.922305511926 1:-1 2:-1 3:1 4:0.486486 5:0.361345 6:-0.716814 7:-0.123428 8:-0.261601 9:-0.282423 10:-0.24564 
59049 1:-1 2:-1 3:1 4:0.0405405 5:-0.00840336 6:-0.787611 7:-0.655392 8:-0.741762 9:-0.724819 10:-0.694071 
59049 1:-1 2:-1 3:1 4:0.391892 5:0.411765 6:-0.743363 7:-0.311139 8:-0.372562 9:-0.456221 10:-0.486796 
34972.864964605425 1:1 2:-1 3:-1 4:0.513514 5:0.529412 6:-0.725664 7:-0.302993 8:-0.456624 9:-0.407505 10:-0.385152 
59049 1:-1 2:1 3:-1 4:0.256757 5:0.226891 6:-0.743363 7:-0.388348 8:-0.420982 9:-0.572087 10:-0.569507 
59049 1:-1 2:1 3:-1 4:0.472973 5:0.411765 6:-0.690265 7:-0.281388 8:-0.415602 9:-0.437788 10:-0.355257 
59049 1:1 2:-1 3:-1 4:0.459459 5:0.394958 6:-0.743363 7:-0.272888 8:-0.404842 9:-0.257406 10:-0.434978 
59049 1:-1 2:1 3:-1 4:0.148649 5:0.142857 6:-0.752212 7:-0.494599 8:-0.575656 9:-0.537854 10:-0.524664 
59049 1:-1 2:1 3:-1 4:0.216216 5:0.294118 6:-0.734513 7:-0.40464 8:-0.505716 9:-0.478604 10:-0.524664 
59049 1:-1 2:1 3:-1 4:0.202703 5:0.193277 6:-0.699115 7:-0.384806 8:-0.498991 9:-0.424621 10:-0.504733 
59049 1:-1 2:1 3:-1 4:0.283784 5:0.092437 6:-0.707965 7:-0.147866 8:-0.271015 9:-0.227123 10:-0.336323 
59049 1:1 2:-1 3:-1 4:0.337838 5:0.327731 6:-0.743363 7:-0.328493 8:-0.462677 9:-0.412772 10:-0.435974 
59049 1:-1 2:1 3:-1 4:0.202703 5:0.159664 6:-0.769912 7:-0.559058 8:-0.712172 9:-0.457538 10:-0.664175 
59049 1:-1 2:-1 3:1 4:0.0675676 5:0.0588235 6:-0.787611 7:-0.668142 8:-0.753194 9:-0.723502 10:-0.694071 
59049 1:-1 2:-1 3:1 4:0.283784 5:0.277311 6:-0.752212 7:-0.467682 8:-0.559516 9:-0.591837 10:-0.539611 
59049 1:1 2:-1 3:-1 4:0.472973 5:0.394958 6:-0.743363 7:-0.231804 8:-0.314055 9:-0.286373 10:-0.491779 
59049 1:1 2:-1 3:-1 4:0.337838 5:0.378151 6:-0.778761 7:-0.400035 8:-0.492266 9:-0.536537 10:-0.524664 
59049 1:-1 2:1 3:-1 4:0.459459 5:0.411765 6:-0.707965 7:-0.276784 8:-0.341627 9:-0.486504 10:-0.398107 
59049 1:-1 2:1 3:-1 4:0.445946 5:0.445378 6:-0.734513 7:-0.12272 8:-0.190989 9:-0.233706 10:-0.388142 
59049 1:-1 2:1 3:-1 4:0.472973 5:0.495798 6:-0.699115 7:-0.188242 8:-0.264963 9:-0.421988 10:-0.342302 
59049 1:-1 2:1 3:-1 4:0.162162 5:0.193277 6:-0.734513 7:-0.545245 8:-0.618023 9:-0.619487 10:-0.584454 
59049 1:-1 2:-1 3:1 4:0.0540541 5:-0.092437 6:-0.752212 7:-0.462015 8:-0.514459 9:-0.597103 10:-0.586447 
33181.874878231967 1:1 2:-1 3:-1 4:0.594595 5:0.579832 6:-0.707965 7:-0.0536568 8:-0.259583 9:-0.0599078 10:-0.305431 
59049 1:-1 2:1 3:-1 4:0.256757 5:0.411765 6:-0.725664 7:-0.344077 8:-0.471419 9:-0.490454 10:-0.484803 
59049 1:-1 2:1 3:-1 4:0.513514 5:0.512605 6:-0.743363 7:-0.197804 8:-0.322125 9:-0.302172 10:-0.375187 
59049 1:-1 2:1 3:-1 4:0.243243 5:0.159664 6:-0.734513 7:-0.134408 8:-0.170141 9:-0.277156 10:-0.429995 
59049 1:-1 2:1 3:-1 4:0.378378 5:0.210084 6:-0.725664 7:-0.506641 8:-0.597848 9:-0.616853 10:-0.61435 
59049 1:-1 2:1 3:-1 4:0.391892 5:0.344538 6:-0.690265 7:-0.31716 8:-0.475454 9:-0.354839 10:-0.385152 
59049 1:1 2:-1 3:-1 4:0.0675676 5:0.0756303 6:-0.787611 7:-0.607225 8:-0.697377 9:-0.680053 10:-0.61435 
59049 1:1 2:-1 3:-1 4:0.486486 5:0.462185 6:-0.707965 7:-0.210554 8:-0.342972 9:-0.312706 10:-0.340309 
14035.483582115017 1:-1 2:1 3:-1 4:0.283784 5:0.210084 6:-0.761062 7:-0.452453 8:-0.595158 9:-0.529954 10:-0.484803 
59049 1:1 2:-1 3:-1 4:0.162162 5:0.109244 6:-0.79646 7:-0.659642 8:-0.718897 9:-0.728769 10:-0.69706 
50480.598731079299 1:-1 2:1 3:-1 4:0.108108 5:0.0756303 6:-0.743363 7:-0.584558 8:-0.680565 9:-0.697169 10:-0.624315 
59049 1:1 2:-1 3:-1 4:0.162162 5:0.159664 6:-0.769912 7:-0.460244 8:-0.593141 9:-0.503621 10:-0.569507 
59049 1:-1 2:-1 3:1 4:0.216216 5:0.260504 6:-0.734513 7:-0.479724 8:-0.567586 9:-0.577354 10:-0.574489 
59049 1:1 2:-1 3:-1 4:0.391892 5:0.462185 6:-0.761062 7:-0.287409 8:-0.433759 9:-0.410138 10:-0.434978 
59049 1:-1 2:-1 3:1 4:0.391892 5:0.361345 6:-0.743363 7:-0.362848 8:-0.437794 9:-0.531271 10:-0.484803 
59049 1:-1 2:1 3:-1 4:0.216216 5:0.159664 6:-0.761062 7:-0.495661 8:-0.573638 9:-0.63792 10:-0.58844 
24662.438835835292 1:1 2:-1 3:-1 4:0.621622 5:0.512605 6:-0.716814 7:0.0837613 8:-0.00605245 9:-0.0612245 10:-0.242651 
59049 1:1 2:-1 3:-1 4:0.513514 5:0.478992 6:-0.734513 7:-0.2357 8:-0.352387 9:-0.364055 10:-0.385152 
22893.012264032022 1:1 2:-1 3:-1 4:0.513514 5:0.495798 6:-0.707965 7:-0.099699 8:-0.122394 9:-0.440421 10:-0.275536 
59049 1:1 2:-1 3:-1 4:0.148649 5:0.12605 6:-0.743363 7:-0.540287 8:-0.634163 9:-0.65372 10:-0.564524 
57017.028681521937 1:1 2:-1 3:-1 4:0.554054 5:0.563025 6:-0.654867 7:0.185762 8:-0.069267 9:0.15734 10:-0.0662681 
59049 1:-1 2:1 3:-1 4:0.337838 5:0.310924 6:-0.725664 7:-0.281034 8:-0.293208 9:-0.468071 10:-0.474838 
59049 1:1 2:-1 3:-1 4:0.0540541 5:-0.00840336 6:-0.787611 7:-0.632725 8:-0.73033 9:-0.573404 10:-0.63428 
59049 1:-1 2:1 3:-1 4:0.418919 5:0.428571 6:-0.699115 7:-0.253409 8:-0.386012 9:-0.360105 10:-0.378176 
59049 1:1 2:-1 3:-1 5:-0.0252101 6:-0.840708 7:-0.732601 8:-0.809011 9:-0.806452 10:-0.753861 
59049 1:-1 2:-1 3:1 4:0.310811 5:0.294118 6:-0.707965 7:-0.434744 8:-0.550773 9:-0.544437 10:-0.504733 
59049 1:-1 2:1 3:-1 4:0.527027 5:0.428571 6:-0.743363 7:-0.211971 8:-0.31809 9:-0.369322 10:-0.325361 
59049 1:1 2:-1 3:-1 4:0.540541 5:0.529412 6:-0.716814 7:-0.163095 8:-0.253531 9:-0.373272 10:-0.315396 
59049 1:-1 2:-1 3:1 4:0.0540541 5:0.092437 6:-0.769912 7:-0.67983 8:-0.746469 9:-0.790652 10:-0.694071 
59049 1:-1 2:-1 3:1 4:0.445946 5:0.462185 6:-0.716814 7:-0.183637 8:-0.212508 9:-0.373272 10:-0.422023 
59049 1:1 2:-1 3:-1 4:0.351351 5:0.277311 6:-0.761062 7:-0.298743 8:-0.420309 9:-0.415405 10:-0.526657 
59049 1:-1 2:-1 3:1 4:0.0135135 5:0.00840336 6:-0.787611 7:-0.70958 8:-0.847344 9:-0.826201 10:-0.684106 
59049 1:-1 2:-1 3:1 4:0.324324 5:0.294118 6:-0.690265 7:-0.382681 8:-0.444519 9:-0.448321 10:-0.584454 
59049 1:-1 2:1 3:-1 4:0.432432 5:0.394958 6:-0.716814 7:-0.23393 8:-0.274378 9:-0.418038 10:-0.454908 
59049 1:1 2:-1 3:-1 4:0.5 5:0.394958 6:-0.734513 7:-0.197096 8:-0.276395 9:-0.389072 10:-0.382162 
59049 1:1 2:-1 3:-1 4:0.364865 5:0.260504 6:-0.778761 7:-0.355764 8:-0.401479 9:-0.454905 10:-0.761834 
59049 1:1 2:-1 3:-1 4:0.22973 5:0.176471 6:-0.734513 7:-0.412431 8:-0.527909 9:-0.508887 10:-0.499751 
59049 1:-1 2:1 3:-1 4:0.486486 5:0.512605 6:-0.690265 7:-0.186825 8:-0.264963 9:-0.327189 10:-0.396114 
59049 1:1 2:-1 3:-1 4:0.175676 5:0.159664 6:-0.769912 7:-0.545599 8:-0.638198 9:-0.56287 10:-0.59442 
59049 1:-1 2:1 3:-1 4:0.513514 5:0.411765 6:-0.734513 7:-0.162387 8:-0.284465 9:-0.19289 10:-0.423019 
59049 1:-1 2:1 3:-1 4:0.486486 5:0.495798 6:-0.716814 7:-0.139366 8:-0.231338 9:-0.456221 10:-0.295466 
59049 1:1 2:-1 3:-1 4:0.337838 5:0.327731 6:-0.725664 7:-0.15495 8:-0.244788 9:-0.325872 10:-0.415047 
59049 1:1 2:-1 3:-1 4:0.378378 5:0.411765 6:-0.787611 7:-0.332035 8:-0.449899 9:-0.444371 10:-0.444943 
59049 1:-1 2:1 3:-1 4:0.216216 5:0.243697 6:-0.743363 7:-0.435098 8:-0.551446 9:-0.450955 10:-0.524664 
38714.180348640068 1:1 2:-1 3:-1 4:0.527027 5:0.747899 6:-0.690265 7:0.0316982 8:-0.160726 9:-0.300856 10:-0.127055 
14306.155616875729 1:-1 2:1 3:-1 4:0.378378 5:0.378151 6:-0.752212 7:-0.358243 8:-0.488904 9:-0.576037 10:-0.375187 
59049 1:-1 2:-1 3:1 4:0.0675676 5:-0.00840336 6:-0.761062 7:-0.599787 8:-0.68998 9:-0.615537 10:-0.699053 
59049 1:-1 2:-1 3:1 4:0.283784 5:0.226891 6:-0.761062 7:-0.423411 8:-0.464022 9:-0.61027 10:-0.544594 
1189.7432262117386 1:1 2:-1 3:-1 4:0.689189 5:0.714286 6:-0.690265 7:0.313618 8:0.134499 9:0.0348914 10:0.0732436 
59049 1:1 2:-1 3:-1 4:0.527027 5:0.512605 6:-0.681416 7:-0.0826988 8:-0.207801 9:-0.178407 10:-0.279522 
59049 1:1 2:-1 3:-1 4:0.486486 5:0.411765 6:-0.690265 7:-0.051886 8:-0.119032 9:-0.25609 10:-0.33134 
39861.22493974286 1:1 2:-1 3:-1 4:0.554054 5:0.579832 6:-0.690265 7:0.0869488 8:-0.0780094 9:-0.0572745 10:-0.195815 
59049 1:-1 2:1 3:-1 4:-0.148649 5:-0.176471 6:-0.823009 7:-0.813706 8:-0.856759 9:-0.843318 10:-0.830593 
59049 1:-1 2:-1 3:1 4:0.22973 5:0.226891 6:-0.672566 7:-0.468744 8:-0.599193 9:-0.59052 10:-0.59442 
59049 1:-1 2:1 3:-1 4:0.324324 5:0.327731 6:-0.654867 7:-0.290597 8:-0.455279 9:-0.341672 10:-0.434978 
59049 1:1 2:-1 3:-1 4:0.0675676 5:0.0588235 6:-0.761062 7:-0.613954 8:-0.702757 9:-0.652403 10:-0.664175 
59049 1:1 2:-1 3:-1 4:0.486486 5:0.411765 6:-0.716814 7:-0.233221 8:-0.328178 9:-0.381172 10:-0.384155 
59049 1:-1 2:-1 3:1 4:0.189189 5:0.12605 6:-0.752212 7:-0.607933 8:-0.732347 9:-0.702436 10:-0.557549 
59049 1:-1 2:1 3:-1 4:-0.0945946 5:-0.159664 6:-0.823009 7:-0.744289 8:-0.767989 9:-0.830151 10:-0.783757 
59049 1:1 2:-1 3:-1 4:0.283784 5:0.327731 6:-0.725664 7:-0.442182 8:-0.540013 9:-0.58262 10:-0.504733 
59049 1:1 2:-1 3:-1 4:0.243243 5:0.226891 6:-0.743363 7:-0.441119 8:-0.557498 9:-0.503621 10:-0.504733 
59049 1:1 2:-1 3:-1 4:0.121622 5:0.092437 6:-0.761062 7:-0.61785 8:-0.70881 9:-0.751152 10:-0.624315 
59049 1:-1 2:-1 3:1 4:0.27027 5:0.260504 6:-0.734513 7:-0.48539 8:-0.595158 9:-0.655036 10:-0.495765 
59049 1:-1 2:1 3:-1 4:0.202703 5:0.176471 6:-0.778761 7:-0.545599 8:-0.67653 9:-0.544437 10:-0.584454 
59049 1:1 2:-1 3:-1 4:0.486486 5:0.428571 6:-0.699115 7:-0.0412608 8:-0.0988568 9:-0.295589 10:-0.328351 
59049 1:1 2:-1 3:-1 4:-0.337838 5:-0.361345 6:-0.867257 7:-0.89127 8:-0.922663 9:-0.901251 10:-0.905331 
59049 1:-1 2:-1 3:1 4:0.189189 5:0.226891 6:-0.734513 7:-0.525058 8:-0.6577 9:-0.64977 10:-0.534629 
59049 1:1 2:-1 3:-1 4:0.391892 5:0.378151 6:-0.725664 7:-0.196742 8:-0.295898 9:-0.312706 10:-0.454908 
59049 1:1 2:-1 3:-1 4:0.608108 5:0.495798 6:-0.646018 7:-0.102532 8:-0.226631 9:-0.215273 10:-0.303438 
59049 1:-1 2:1 3:-1 4:0.432432 5:0.445378 6:-0.707965 7:-0.32743 8:-0.391392 9:-0.493088 10:-0.451918 
59049 1:-1 2:1 3:-1 4:0.22973 5:0.193277 6:-0.769912 7:-0.508057 8:-0.595158 9:-0.491771 10:-0.604385 
59049 1:-1 2:1 3:-1 4:-0.121622 5:-0.142857 6:-0.79646 7:-0.755977 8:-0.802959 9:-0.818302 10:-0.773792 
59049 1:1 2:-1 3:-1 4:0.256757 5:0.226891 6:-0.725664 7:-0.478307 8:-0.528581 9:-0.601053 10:-0.574489 
59049 1:-1 2:-1 3:1 4:0.202703 5:0.142857 6:-0.79646 7:-0.544891 8:-0.577001 9:-0.673469 10:-0.632287 
59049 1:1 2:-1 3:-1 4:0.418919 5:0.478992 6:-0.690265 7:-0.0802196 8:-0.168124 9:-0.253456 10:-0.348281 
59049 1:-1 2:-1 3:1 4:0.108108 5:0.0588235 6:-0.769912 7:-0.676997 8:-0.757902 9:-0.703752 10:-0.731938 
59049 1:1 2:-1 3:-1 4:0.216216 5:0.260504 6:-0.707965 7:-0.389056 8:-0.495629 9:-0.489138 10:-0.501744 
59049 1:-1 2:1 3:-1 4:0.418919 5:0.327731 6:-0.752212 7:-0.408536 8:-0.503699 9:-0.535221 10:-0.519681 
59049 1:-1 2:1 3:-1 4:0.324324 5:0.462185 6:-0.725664 7:-0.346556 8:-0.456624 9:-0.423305 10:-0.494768 
59049 1:1 2:-1 3:-1 4:0.459459 5:0.411765 6:-0.699115 7:-0.163804 8:-0.36382 9:-0.238973 10:-0.524664 
59049 1:-1 2:1 3:-1 4:0.391892 5:0.344538 6:-0.725664 7:-0.246325 8:-0.487559 9:-0.402238 10:-0.175884 
38061.814752607293 1:-1 2:1 3:-1 4:0.0675676 5:0.00840336 6:-0.752212 7:-0.694705 8:-0.796234 9:-0.751152 10:-0.70005 
59049 1:-1 2:1 3:-1 4:0.459459 5:0.445378 6:-0.716814 7:-0.181512 8:-0.328178 9:-0.344305 10:-0.375187 
59049 1:-1 2:1 3:-1 4:0.324324 5:0.310924 6:-0.725664 7:-0.416327 8:-0.542703 9:-0.460171 10:-0.509716 
59049 1:-1 2:-1 3:1 4:-0.0540541 5:-0.0252101 6:-0.778761 7:-0.700372 8:-0.786147 9:-0.791968 10:-0.696064 
59049 1:1 2:-1 3:-1 4:0.540541 5:0.495798 6:-0.690265 7:-0.0533026 8:-0.149966 9:-0.213957 10:-0.307424 
59049 1:1 2:-1 3:-1 4:0.027027 5:0.0420168 6:-0.831858 7:-0.63733 8:-0.699395 9:-0.735352 10:-0.704036 
59049 1:-1 2:1 3:-1 4:0.121622 5:0.12605 6:-0.761062 7:-0.591642 8:-0.669805 9:-0.677419 10:-0.604385 
59049 1:1 2:-1 3:-1 4:0.364865 5:0.361345 6:-0.725664 7:-0.269347 8:-0.370545 9:-0.415405 10:-0.415047 
59049 1:1 2:-1 3:-1 4:0.0810811 5:0.0756303 6:-0.778761 7:-0.581371 8:-0.628783 9:-0.698486 10:-0.644245 
16376.260323731914 1:-1 2:1 3:-1 4:0.824324 5:0.714286 6:-0.619469 7:0.371348 8:0.0390047 9:0.269256 10:0.143 
59049 1:-1 2:1 3:-1 4:0.108108 5:0.0420168 6:-0.752212 7:-0.5626 8:-0.65232 9:-0.620803 10:-0.650224 
59049 1:-1 2:1 3:-1 4:0.540541 5:0.428571 6:-0.663717 7:-0.0302816 8:-0.0699395 9:-0.23634 10:-0.305431 
59049 1:1 2:-1 3:-1 4:0.445946 5:0.428571 6:-0.672566 7:-0.0759695 8:-0.0739744 9:-0.233706 10:-0.425012 
59049 1:-1 2:-1 3:1 4:-0.202703 5:-0.243697 6:-0.840708 7:-0.836373 8:-0.879623 9:-0.857801 10:-0.863478 
59049 1:-1 2:-1 3:1 4:-0.0405405 5:-0.092437 6:-0.80531 7:-0.741101 8:-0.819099 9:-0.755102 10:-0.763827 
59049 1:-1 2:1 3:-1 4:0.175676 5:0.159664 6:-0.769912 7:-0.595183 8:-0.706792 9:-0.64187 10:-0.61435 
59049 1:-1 2:-1 3:1 4:0.256757 5:0.243697 6:-0.769912 7:-0.491057 8:-0.6039 9:-0.556287 10:-0.554559 
59049 1:-1 2:1 3:-1 4:0.0675676 5:0.0756303 6:-0.778761 7:-0.603683 8:-0.662408 9:-0.640553 10:-0.644245 
59049 1:-1 2:1 3:-1 4:-0.0810811 5:-0.092437 6:-0.814159 7:-0.732247 8:-0.786819 9:-0.794602 10:-0.763827 
59049 1:1 2:-1 3:-1 4:0.486486 5:0.495798 6:-0.752212 7:-0.225075 8:-0.268998 9:-0.431205 10:-0.415047 
59049 1:1 2:-1 3:-1 4:0.337838 5:0.361345 6:-0.725664 7:-0.292722 8:-0.39072 9:-0.461488 10:-0.474838 
3315.7608595784959 1:-1 2:1 3:-1 4:0.459459 5:0.411765 6:-0.725664 7:-0.211617 8:-0.35037 9:-0.444371 10:-0.295466 
59049 1:-1 2:1 3:-1 4:-0.0945946 5:-0.12605 6:-0.80531 7:-0.774039 8:-0.832549 9:-0.828835 10:-0.813652 
59049 1:1 2:-1 3:-1 4:0.378378 5:0.344538 6:-0.743363 7:-0.326368 8:-0.470746 9:-0.294273 10:-0.488789 
59049 1:-1 2:1 3:-1 4:0.310811 5:0.327731 6:-0.716814 7:-0.27643 8:-0.424344 9:-0.295589 10:-0.405082 
59049 1:-1 2:1 3:-1 4:0.418919 5:0.428571 6:-0.734513 7:-0.272534 8:-0.451917 9:-0.289006 10:-0.415047 
59049 1:1 2:-1 3:-1 4:0.216216 5:0.176471 6:-0.761062 7:-0.464849 8:-0.556826 9:-0.432521 10:-0.61435 
59049 1:1 2:-1 3:-1 4:0.391892 5:0.378151 6:-0.707965 7:-0.211617 8:-0.306658 9:-0.282423 10:-0.454908 
59049 1:-1 2:1 3:-1 4:0.567568 5:0.546218 6:-0.699115 7:0.0802196 8:0.139879 9:-0.307439 10:-0.343298 
59049 1:-1 2:1 3:-1 4:0.337838 5:0.327731 6:-0.716814 7:-0.313264 8:-0.468056 9:-0.329822 10:-0.484803 
59049 1:-1 2:-1 3:1 4:0.108108 5:0.00840336 6:-0.769912 7:-0.589871 8:-0.671822 9:-0.65372 10:-0.668161 
59049 1:-1 2:-1 3:1 4:0.189189 5:0.159664 6:-0.787611 7:-0.53462 8:-0.637525 9:-0.529954 10:-0.664175 
10388.542123444178 1:-1 2:1 3:-1 4:0.364865 5:0.260504 6:-0.699115 7:0.0469276 8:-0.122394 9:-0.148124 10:-0.174888 
59049 1:-1 2:1 3:-1 4:0.027027 5:-0.00840336 6:-0.752212 7:-0.634142 8:-0.704102 9:-0.668203 10:-0.733931 
59049 1:1 2:-1 3:-1 4:-0.0540541 5:-0.12605 6:-0.778761 7:-0.751727 8:-0.848689 9:-0.852535 10:-0.743896 
19526.642574498379 1:-1 2:-1 3:1 4:0.486486 5:0.394958 6:-0.725664 7:-0.154595 8:-0.136516 9:-0.460171 10:-0.376183 
59049 1:-1 2:1 3:-1 4:0.540541 5:0.445378 6:-0.734513 7:-0.186117 8:-0.203093 9:-0.391705 10:-0.419033 
59049 1:-1 2:1 3:-1 4:0.445946 5:0.361345 6:-0.743363 7:-0.209138 8:-0.35844 9:-0.225806 10:-0.408072 
59049 1:1 2:-1 3:-1 4:-0.256757 5:-0.310924 6:-0.840708 7:-0.861165 8:-0.903833 9:-0.853851 10:-0.883408 
59049 1:1 2:-1 3:-1 4:0.472973 5:0.428571 6:-0.734513 7:-0.104657 8:-0.156019 9:-0.323239 10:-0.387145 
59049 1:1 2:-1 3:-1 4:0.0675676 5:0.0588235 6:-0.814159 7:-0.670976 8:-0.728985 9:-0.734036 10:-0.694071 
59049 1:1 2:-1 3:-1 4:0.405405 5:0.361345 6:-0.699115 7:-0.201346 8:-0.234701 9:-0.328506 10:-0.474838 
59049 1:-1 2:-1 3:1 4:-0.337838 5:-0.361345 6:-0.858407 7:-0.889145 8:-0.915938 9:-0.915734 10:-0.903338 
59049 1:-1 2:-1 3:1 4:-0.0135135 5:-0.0252101 6:-0.823009 7:-0.742164 8:-0.837256 9:-0.763002 10:-0.763827 
59049 1:1 2:-1 3:-1 4:0.567568 5:0.663866 6:-0.681416 7:-0.0989906 8:-0.213181 9:-0.261356 10:-0.275536 
59049 1:1 2:-1 3:-1 4:0.527027 5:0.478992 6:-0.707965 7:-0.0756154 8:-0.0894418 9:-0.23239 10:-0.472845 
59049 1:-1 2:1 3:-1 4:0.418919 5:0.411765 6:-0.725664 7:-0.144324 8:-0.123067 9:-0.55497 10:-0.364225 
59049 1:1 2:-1 3:-1 4:0.513514 5:0.579832 6:-0.672566 7:-0.00513547 8:-0.0813719 9:-0.211323 10:-0.256602 
59049 1:-1 2:1 3:-1 4:0.121622 5:0.0588235 6:-0.752212 7:-0.587037 8:-0.674512 9:-0.698486 10:-0.61435 
59049 1:-1 2:1 3:-1 4:0.405405 5:0.428571 6:-0.734513 7:-0.215158 8:-0.33154 9:-0.400922 10:-0.345291 
59049 1:-1 2:1 3:-1 4:0.364865 5:0.344538 6:-0.699115 7:-0.358597 8:-0.498319 9:-0.439105 10:-0.434978 
59049 1:-1 2:-1 3:1 4:0.0135135 5:-0.00840336 6:-0.743363 7:-0.629538 8:-0.720915 9:-0.737986 10:-0.673144 
59049 1:1 2:-1 3:-1 4:-0.22973 5:-0.193277 6:-0.769912 7:-0.80556 8:-0.880968 9:-0.851218 10:-0.802691 
59049 1:-1 2:-1 3:1 4:0.283784 5:0.310924 6:-0.743363 7:-0.446786 8:-0.591796 9:-0.587887 10:-0.474838 
59049 1:1 2:-1 3:-1 4:0.027027 5:-0.00840336 6:-0.787611 7:-0.658934 8:-0.757229 9:-0.62212 10:-0.684106 
59049 1:-1 2:-1 3:1 5:-0.0756303 6:-0.787611 7:-0.755622 8:-0.839946 9:-0.780118 10:-0.793722 
59049 1:1 2:-1 3:-1 4:0.364865 5:0.344538 6:-0.761062 7:-0.437932 8:-0.456624 9:-0.561554 10:-0.596413 
18062.790948937636 1:-1 2:1 3:-1 4:0.5 5:0.428571 6:-0.690265 7:-0.0327608 8:-0.326833 9:-0.202107 10:0.023418 
59049 1:1 2:-1 3:-1 4:0.432432 5:0.428571 6:-0.699115 7:-0.163095 8:-0.218561 9:-0.378539 10:-0.371201 
832.03016105388122 1:-1 2:1 3:-1 4:0.905405 5:0.932773 6:-0.619469 7:0.880645 8:1 9:0.311389 10:0.164923 
59049 1:1 2:-1 3:-1 4:0.22973 5:0.193277 6:-0.725664 7:-0.494599 8:-0.624075 9:-0.557604 10:-0.576482 
59049 1:1 2:-1 3:-1 4:0.513514 5:0.579832 6:-0.716814 7:-0.15495 8:-0.270343 9:-0.353522 10:-0.335326 
59049 1:-1 2:1 3:-1 4:0.0810811 5:0.12605 6:-0.787611 7:-0.625642 8:-0.71419 9:-0.697169 10:-0.664175 
59049 1:-1 2:-1 3:1 4:0.0675676 5:-0.0252101 6:-0.79646 7:-0.655392 8:-0.731675 9:-0.716919 10:-0.672147 
33006.507275625139 1:1 2:-1 3:-1 4:0.594595 5:0.512605 6:-0.716814 7:-0.0883655 8:-0.174849 9:-0.335089 10:-0.272546 
59049 1:-1 2:1 3:-1 4:0.0675676 5:0.0252101 6:-0.787611 7:-0.663184 8:-0.718225 9:-0.723502 10:-0.704036 
9747.2482994331913 1:-1 2:1 3:-1 4:0.824324 5:0.731092 6:-0.628319 7:0.582433 8:0.490249 9:0.366689 10:0.0832088 
59049 1:1 2:-1 3:-1 4:-0.364865 5:-0.394958 6:-0.893805 7:-0.916416 8:-0.945528 9:-0.914417 10:-0.923269 
59049 1:-1 2:1 3:-1 4:0.0810811 5:0.0420168 6:-0.769912 7:-0.661059 8:-0.745124 9:-0.701119 10:-0.709018 
59049 1:1 2:-1 3:-1 4:0.202703 5:0.109244 6:-0.79646 7:-0.527537 8:-0.680565 9:-0.548387 10:-0.59442 
59049 1:1 2:-1 3:-1 4:0.5 5:0.462185 6:-0.699115 7:-0.169471 8:-0.294553 9:-0.282423 10:-0.327354 
59049 1:-1 2:1 3:-1 4:0.486486 5:0.310924 6:-0.716814 7:-0.229325 8:-0.38265 9:-0.22054 10:-0.39711 
59049 1:-1 2:1 3:-1 4:0.486486 5:0.394958 6:-0.743363 7:-0.304409 8:-0.362475 9:-0.474654 10:-0.474838 
59049 1:-1 2:-1 3:1 4:0.0675676 5:0.0756303 6:-0.814159 7:-0.689038 8:-0.776732 9:-0.773535 10:-0.714001 
59049 1:-1 2:1 3:-1 4:0.418919 5:0.394958 6:-0.761062 7:-0.314326 8:-0.375252 9:-0.486504 10:-0.476831 
59049 1:-1 2:1 3:-1 4:0.22973 5:0.109244 6:-0.778761 7:-0.527183 8:-0.612643 9:-0.603687 10:-0.644245 
59049 1:1 2:-1 3:-1 4:0.527027 5:0.546218 6:-0.707965 7:-0.0316982 8:-0.151311 9:-0.102041 10:-0.289487 
59049 1:-1 2:1 3:-1 4:0.283784 5:0.394958 6:-0.734513 7:-0.349389 8:-0.488904 9:-0.360105 10:-0.469856 
59049 1:-1 2:1 3:-1 4:0.581081 5:0.546218 6:-0.699115 7:-0.0543651 8:-0.174176 9:-0.178407 10:-0.290483 
59049 1:1 2:-1 3:-1 4:0.472973 5:0.462185 6:-0.716814 7:-0.268284 8:-0.409549 9:-0.336406 10:-0.434978 
19285.289517242785 1:1 2:-1 3:-1 4:0.675676 5:0.697479 6:-0.663717 7:0.0568443 8:-0.210491 9:-0.0994075 10:-0.0363727 
59049 1:-1 2:1 3:-1 4:0.418919 5:0.411765 6:-0.681416 7:-0.178325 8:-0.314055 9:-0.296906 10:-0.365222 
59049 1:-1 2:1 3:-1 4:0.472973 5:0.512605 6:-0.716814 7:-0.0292191 8:-0.156019 9:-0.277156 10:-0.26856 
59049 1:1 2:-1 3:-1 4:0.5 5:0.462185 6:-0.707965 7:-0.151054 8:-0.227976 9:-0.282423 10:-0.41704 
59049 1:1 2:-1 3:-1 4:0.5 5:0.428571 6:-0.743363 7:-0.28493 8:-0.431742 9:-0.377222 10:-0.395117 
59049 1:-1 2:1 3:-1 4:0.405405 5:0.327731 6:-0.734513 7:-0.212325 8:-0.212508 9:-0.420671 10:-0.504733 
59049 1:-1 2:1 3:-1 4:0.189189 5:0.277311 6:-0.699115 7:-0.554454 8:-0.629455 9:-0.709019 10:-0.572496 
59049 1:-1 2:1 3:-1 4:0.459459 5:0.478992 6:-0.716814 7:-0.112449 8:-0.219233 9:-0.159974 10:-0.360239 
59049 1:-1 2:-1 3:1 4:0.324324 5:0.260504 6:-0.734513 7:-0.419515 8:-0.554808 9:-0.557604 10:-0.425012 
59049 1:-1 2:-1 3:1 4:0.472973 5:0.327731 6:-0.761062 7:-0.34691 8:-0.519839 9:-0.404872 10:-0.412058 
59049 1:-1 2:1 3:-1 4:0.459459 5:0.478992 6:-0.707965 7:-0.152825 8:-0.273033 9:-0.246873 10:-0.368211 
59049 1:-1 2:1 3:-1 4:0.175676 5:0.159664 6:-0.787611 7:-0.505224 8:-0.534633 9:-0.710336 10:-0.61435 
49017.197308646355 1:1 2:-1 3:-1 4:0.635135 5:0.613445 6:-0.672566 7:0.136887 8:-0.0268998 9:-0.154707 10:-0.0104634 
59049 1:1 2:-1 3:-1 4:0.527027 5:0.478992 6:-0.699115 7:-0.194617 8:-0.275723 9:-0.258723 10:-0.434978 
41838.312051648471 1:-1 2:1 3:-1 4:0.608108 5:0.663866 6:-0.725664 7:0.107845 8:0.152656 9:-0.108624 10:-0.297459 
59049 1:-1 2:1 3:-1 4:0.5 5:0.445378 6:-0.672566 7:-0.174783 8:-0.264291 9:-0.346939 10:-0.325361 
33709.056236782402 1:-1 2:-1 3:1 4:0.5 5:0.512605 6:-0.681416 7:-0.100407 8:-0.190989 9:-0.22449 10:-0.375187 
59049 1:1 2:-1 3:-1 4:0.364865 5:0.310924 6:-0.734513 7:-0.326722 8:-0.420982 9:-0.489138 10:-0.430992 
59049 1:1 2:-1 3:-1 4:0.486486 5:0.478992 6:-0.725664 7:-0.258721 8:-0.346335 9:-0.443055 10:-0.362232 
59049 1:-1 2:1 3:-1 4:0.432432 5:0.445378 6:-0.707965 7:-0.285638 8:-0.416274 9:-0.450955 10:-0.405082 
59049 1:1 2:-1 3:-1 4:0.418919 5:0.394958 6:-0.716814 7:-0.155658 8:-0.244788 9:-0.199473 10:-0.477828 
59049 1:-1 2:1 3:-1 4:0.202703 5:0.159664 6:-0.787611 7:-0.539933 8:-0.650303 9:-0.470704 10:-0.674141 
59049 1:1 2:-1 3:-1 4:0.432432 5:0.411765 6:-0.734513 7:-0.186825 8:-0.227976 9:-0.390388 10:-0.411061 
59049 1:-1 2:1 3:-1 4:-0.0675676 5:-0.0756303 6:-0.778761 7:-0.673455 8:-0.751177 9:-0.711652 10:-0.714001 
59049 1:1 2:-1 3:-1 4:0.0405405 5:0.00840336 6:-0.752212 7:-0.653621 8:-0.722932 9:-0.698486 10:-0.656203 
59049 1:-1 2:1 3:-1 4:0.608108 5:0.512605 6:-0.690265 7:-0.282805 8:-0.412912 9:-0.287689 10:-0.256602 
59049 1:1 2:-1 3:-1 4:0.527027 5:0.445378 6:-0.734513 7:-0.223659 8:-0.302623 9:-0.416722 10:-0.370204 
44324.290649488939 1:-1 2:1 3:-1 4:0.283784 5:0.327731 6:-0.743363 7:-0.476536 8:-0.604573 9:-0.623436 10:-0.471849 
59049 1:-1 2:-1 3:1 4:0.283784 5:0.260504 6:-0.743363 7:-0.497078 8:-0.594486 9:-0.601053 10:-0.554559 
59049 1:-1 2:1 3:-1 4:0.486486 5:0.445378 6:-0.690265 7:-0.0366566 8:-0.0914593 9:-0.312706 10:-0.264574 
59049 1:-1 2:1 3:-1 4:0.405405 5:0.344538 6:-0.725664 7:-0.250221 8:-0.310693 9:-0.431205 10:-0.405082 
59049 1:-1 2:1 3:-1 4:0.135135 5:0.109244 6:-0.769912 7:-0.512307 8:-0.581036 9:-0.529954 10:-0.65421 
11261.800703755713 1:-1 2:1 3:-1 4:0.648649 5:0.630252 6:-0.716814 7:0.179741 8:0.119032 9:-0.00724161 10:-0.0563029 
59049 1:-1 2:1 3:-1 4:0.405405 5:0.378151 6:-0.752212 7:-0.213033 8:-0.305313 9:-0.358789 10:-0.395117 
56295.231038686361 1:1 2:-1 3:-1 4:0.459459 5:0.445378 6:-0.619469 7:-0.320347 8:-0.433759 9:-0.537854 10:-0.425012 
59049 1:1 2:-1 3:-1 4:0.459459 5:0.361345 6:-0.699115 7:-0.253055 8:-0.353732 9:-0.285056 10:-0.464873 
59049 1:1 2:-1 3:-1 4:0.405405 5:0.344538 6:-0.734513 7:-0.373827 8:-0.420982 9:-0.472021 10:-0.558545 
59049 1:-1 2:1 3:-1 4:-0.108108 5:-0.142857 6:-0.787611 7:-0.782185 8:-0.815736 9:-0.848585 10:-0.813652 
59049 1:-1 2:1 3:-1 4:0.0405405 5:0.00840336 6:-0.769912 7:-0.676997 8:-0.743107 9:-0.723502 10:-0.743896 
59049 1:-1 2:1 3:-1 4:0.513514 5:0.529412 6:-0.690265 7:-0.142554 8:-0.229993 9:-0.314022 10:-0.285501 
59049 1:-1 2:1 3:-1 4:0.486486 5:0.462185 6:-0.725664 7:-0.0593235 8:-0.103564 9:-0.319289 10:-0.345291 
59049 1:1 2:-1 3:-1 4:0.351351 5:0.344538 6:-0.743363 7:-0.1762 8:-0.219906 9:-0.402238 10:-0.405082 
59049 1:-1 2:-1 3:1 4:-0.0135135 5:-0.00840336 6:-0.761062 7:-0.693288 8:-0.757229 9:-0.782752 10:-0.753861 
59049 1:-1 2:1 3:-1 4:0.459459 5:0.563025 6:-0.734513 7:-0.0497609 8:-0.155346 9:-0.315339 10:-0.315396 
23245.679684297458 1:-1 2:1 3:-1 4:0.202703 5:0.243697 6:-0.707965 7:-0.301222 8:-0.468729 9:-0.408822 10:-0.365222 
59049 1:-1 2:1 3:-1 4:0.391892 5:0.378151 6:-0.716814 7:-0.221888 8:-0.32078 9:-0.336406 10:-0.415047 
59049 1:-1 2:1 3:-1 4:0.202703 5:0.176471 6:-0.752212 7:-0.511599 8:-0.630128 9:-0.640553 10:-0.574489 
59049 1:1 2:-1 3:-1 4:0.243243 5:0.176471 6:-0.690265 7:-0.10147 8:-0.264291 9:-0.14154 10:-0.33134 
59049 1:-1 2:1 3:-1 4:-0.27027 5:-0.310924 6:-0.840708 7:-0.85479 8:-0.897108 9:-0.886768 10:-0.850523 
59049 1:-1 2:1 3:-1 4:0.445946 5:0.411765 6:-0.752212 7:-0.198867 8:-0.291863 9:-0.381172 10:-0.305431 
59049 1:1 2:-1 3:-1 4:0.189189 5:0.176471 6:-0.769912 7:-0.489995 8:-0.570948 9:-0.656353 10:-0.584454 
59049 1:1 2:-1 3:-1 4:0.445946 5:0.428571 6:-0.752212 7:-0.248805 8:-0.30733 9:-0.408822 10:-0.422023 
59049 1:-1 2:1 3:-1 4:0.378378 5:0.378151 6:-0.699115 7:-0.299097 8:-0.481506 9:-0.411455 10:-0.474838 
59049 1:1 2:-1 3:-1 4:0.162162 5:0.142857 6:-0.761062 7:-0.582433 8:-0.613988 9:-0.655036 10:-0.63428 
59049 1:-1 2:1 3:-1 4:0.513514 5:0.445378 6:-0.707965 7:-0.102178 8:-0.243443 9:-0.194207 10:-0.326358 
59049 1:-1 2:-1 3:1 4:-0.135135 5:-0.193277 6:-0.823009 7:-0.809102 8:-0.821116 9:-0.915734 10:-0.833582 
59049 1:-1 2:1 3:-1 4:0.351351 5:0.226891 6:-0.761062 7:-0.394369 8:-0.381305 9:-0.61422 10:-0.579472 
33193.01190227364 1:1 2:-1 3:-1 4:0.513514 5:0.563025 6:-0.690265 7:-0.0862405 8:-0.194351 9:-0.292956 10:-0.27155 
59049 1:-1 2:1 3:-1 4:-0.027027 5:-0.00840336 6:-0.80531 7:-0.729414 8:-0.809011 9:-0.736669 10:-0.753861 
59049 1:-1 2:-1 3:1 4:-0.027027 5:-0.0588235 6:-0.80531 7:-0.730122 8:-0.792199 9:-0.823568 10:-0.733931 
33380.2113109395 1:1 2:-1 3:-1 4:0.405405 5:0.394958 6:-0.725664 7:-0.150345 8:-0.33961 9:0.0164582 10:-0.474838 
59049 1:1 2:-1 3:-1 4:0.418919 5:0.327731 6:-0.716814 7:-0.192492 8:-0.276395 9:-0.408822 10:-0.391131 
59049 1:-1 2:-1 3:1 4:0.202703 5:0.243697 6:-0.699115 7:-0.519391 8:-0.624748 9:-0.54312 10:-0.61435 
59049 1:1 2:-1 3:-1 4:0.486486 5:0.462185 6:-0.707965 7:-0.147866 8:-0.305313 9:-0.183673 10:-0.312407 
59049 1:-1 2:-1 3:1 4:0.310811 5:0.277311 6:-0.761062 7:-0.491411 8:-0.558843 9:-0.730086 10:-0.50274 
59049 1:-1 2:-1 3:1 4:0.148649 5:0.109244 6:-0.725664 7:-0.461661 8:-0.490921 9:-0.577354 10:-0.624315 
59049 1:-1 2:-1 3:1 4:-0.0540541 5:0.092437 6:-0.814159 7:-0.770143 8:-0.828514 9:-0.794602 10:-0.803687 
59049 1:1 2:-1 3:-1 4:0.108108 5:0.00840336 6:-0.787611 7:-0.613954 8:-0.712172 9:-0.576037 10:-0.723966 
59049 1:-1 2:-1 3:1 4:0.216216 5:0.193277 6:-0.690265 7:-0.382327 8:-0.519166 9:-0.456221 10:-0.59442 
59049 1:1 2:-1 3:-1 4:0.445946 5:0.428571 6:-0.734513 7:-0.151408 8:-0.248151 9:-0.354839 10:-0.444943 
59049 1:1 2:-1 3:-1 4:0.337838 5:0.277311 6:-0.743363 7:-0.360014 8:-0.473436 9:-0.381172 10:-0.454908 
59049 1:-1 2:1 3:-1 4:0.22973 5:0.260504 6:-0.699115 7:-0.452453 8:-0.530599 9:-0.601053 10:-0.534629 
59049 1:-1 2:-1 3:1 4:0.0540541 5:-0.0420168 6:-0.80531 7:-0.756331 8:-0.809684 9:-0.809085 10:-0.777778 
59049 1:-1 2:-1 3:1 4:0.418919 5:0.411765 6:-0.734513 7:-0.208075 8:-0.241426 9:-0.352205 10:-0.464873 
59049 1:-1 2:1 3:-1 4:0.5 5:0.495798 6:-0.690265 7:-0.214804 8:-0.373235 9:-0.295589 10:-0.347285 
59049 1:1 2:-1 3:-1 4:0.5 5:0.512605 6:-0.734513 7:-0.0688861 8:-0.150639 9:-0.352205 10:-0.265571 
59049 1:-1 2:-1 3:1 4:0.27027 5:0.243697 6:-0.752212 7:-0.424473 8:-0.591123 9:-0.393022 10:-0.516692 
59049 1:-1 2:1 3:-1 4:0.202703 5:0.193277 6:-0.778761 7:-0.506641 8:-0.605245 9:-0.573404 10:-0.574489 
59049 1:1 2:-1 3:-1 4:0.027027 5:0.00840336 6:-0.769912 7:-0.636621 8:-0.732347 9:-0.665569 10:-0.65421 
59049 1:-1 2:1 3:-1 4:0.540541 5:0.428571 6:-0.699115 7:-0.197804 8:-0.29119 9:-0.332456 10:-0.395117 
59049 1:-1 2:-1 3:1 4:0.22973 5:0.226891 6:-0.725664 7:-0.427661 8:-0.365837 9:-0.709019 10:-0.620329 
59049 1:-1 2:1 3:-1 4:0.378378 5:0.327731 6:-0.716814 7:-0.238534 8:-0.329523 9:-0.24424 10:-0.504733 
59049 1:1 2:-1 3:-1 4:0.297297 5:0.327731 6:-0.743363 7:-0.353285 8:-0.463349 9:-0.353522 10:-0.434978 
59049 1:1 2:-1 3:-1 4:0.0810811 5:0.0756303 6:-0.769912 7:-0.63485 8:-0.72226 9:-0.694536 10:-0.664175 
59049 1:-1 2:1 3:-1 4:-0.027027 5:-0.109244 6:-0.787611 7:-0.73331 8:-0.796907 9:-0.760369 10:-0.753861 
26603.881120650978 1:1 2:-1 3:-1 4:0.581081 5:0.512605 6:-0.646018 7:0.153533 8:-0.347007 9:-0.219223 10:0.212755 
59049 1:-1 2:1 3:-1 4:0.581081 5:0.596639 6:-0.681416 7:0.0734903 8:0.0430397 9:-0.206057 10:-0.203787 
59049 1:-1 2:-1 3:1 4:0.027027 5:0.0252101 6:-0.79646 7:-0.677705 8:-0.720915 9:-0.776169 10:-0.710015 
59049 1:1 2:-1 3:-1 4:0.459459 5:0.411765 6:-0.699115 7:-0.2017 8:-0.356422 9:-0.206057 10:-0.405082 
59049 1:1 2:-1 3:-1 4:0.5 5:0.428571 6:-0.734513 7:-0.101116 8:-0.112979 9:-0.362739 10:-0.385152 
1300.4113996489118 1:-1 2:1 3:-1 4:0.783784 5:0.714286 6:-0.637168 7:0.505578 8:0.27505 9:0.210007 10:0.123069 
59049 1:1 2:-1 3:-1 4:-0.27027 5:-0.327731 6:-0.858407 7:-0.881707 8:-0.920646 9:-0.889401 10:-0.895366 
59049 1:1 2:-1 3:-1 4:0.216216 5:0.159664 6:-0.699115 7:-0.483974 8:-0.626093 9:-0.460171 10:-0.61435 
59049 1:-1 2:-1 3:1 4:0.22973 5:0.226891 6:-0.769912 7:-0.40889 8:-0.497646 9:-0.561554 10:-0.506726 
59049 1:1 2:-1 3:-1 4:0.472973 5:0.428571 6:-0.734513 7:-0.221179 8:-0.333557 9:-0.361422 10:-0.395117 
13660.976872743102 1:-1 2:-1 3:1 4:0.445946 5:0.411765 6:-0.734513 7:-0.316805 8:-0.443847 9:-0.474654 10:-0.315396 
59049 1:-1 2:1 3:-1 4:0.554054 5:0.512605 6:-0.707965 7:-0.179741 8:-0.357767 9:-0.279789 10:-0.307424 
7143.8603345787315 1:-1 2:1 3:-1 4:0.432432 5:0.512605 6:-0.681416 7:0.0143439 8:-0.0215198 9:-0.306122 10:-0.143996 
59049 1:-1 2:1 3:-1 4:0.351351 5:0.327731 6:-0.716814 7:-0.244909 8:-0.253531 9:-0.437788 10:-0.489786 
59049 1:-1 2:-1 3:1 4:0.0945946 5:0.0588235 6:-0.787611 7:-0.63733 8:-0.72226 9:-0.656353 10:-0.694071 
59049 1:-1 2:1 3:-1 4:0.459459 5:0.344538 6:-0.743363 7:-0.211263 8:-0.322798 9:-0.374589 10:-0.375187 
59049 1:1 2:-1 3:-1 4:0.459459 5:0.411765 6:-0.690265 7:-0.220117 8:-0.377942 9:-0.186307 10:-0.45989 
59049 1:-1 2:-1 3:1 4:0.189189 5:0.226891 6:-0.761062 7:-0.497786 8:-0.548083 9:-0.62212 10:-0.59442 
59049 1:-1 2:-1 3:1 4:0.121622 5:0.0420168 6:-0.778761 7:-0.605808 8:-0.662408 9:-0.669519 10:-0.681116 
59049 1:1 2:-1 3:-1 4:0.445946 5:0.327731 6:-0.734513 7:-0.384452 8:-0.453934 9:-0.518104 10:-0.504733 
59049 1:1 2:-1 3:-1 4:0.148649 5:0.176471 6:-0.725664 7:-0.454578 8:-0.535978 9:-0.597103 10:-0.514699 
59049 1:1 2:-1 3:-1 4:0.445946 5:0.394958 6:-0.734513 7:-0.177971 8:-0.241426 9:-0.321922 10:-0.388142 
59049 1:-1 2:1 3:-1 4:0.0945946 5:0.0756303 6:-0.814159 7:-0.629538 8:-0.707465 9:-0.686636 10:-0.694071 
59049 1:-1 2:1 3:-1 4:0.472973 5:0.529412 6:-0.734513 7:0.0299274 8:-0.219906 9:-0.24424 10:-0.365222 
59049 1:1 2:-1 3:-1 4:0.405405 5:0.344538 6:-0.743363 7:-0.33416 8:-0.422999 9:-0.522054 10:-0.450922 
59049 1:1 2:-1 3:-1 4:0.432432 5:0.310924 6:-0.752212 7:-0.305826 8:-0.423672 9:-0.452271 10:-0.415047 
59049 1:-1 2:1 3:-1 4:0.202703 5:0.243697 6:-0.734513 7:-0.425536 8:-0.483524 9:-0.470704 10:-0.544594 
59049 1:-1 2:1 3:-1 4:0.567568 5:0.512605 6:-0.690265 7:-0.087303 8:-0.166779 9:-0.22054 10:-0.353264 
59049 1:-1 2:1 3:-1 4:0.0135135 5:0.0252101 6:-0.778761 7:-0.642642 8:-0.702757 9:-0.724819 10:-0.684106 
59049 1:1 2:-1 3:-1 4:0.378378 5:0.394958 6:-0.707965 7:-0.00336462 8:0.0746469 9:-0.398288 10:-0.415047 
59049 1:-1 2:1 3:-1 4:0.472973 5:0.428571 6:-0.681416 7:-0.136179 8:-0.218561 9:-0.291639 10:-0.379173 
59049 1:-1 2:-1 3:1 4:0.0675676 5:-0.00840336 6:-0.769912 7:-0.67133 8:-0.753194 9:-0.740619 10:-0.714001 
59049 1:-1 2:-1 3:1 4:0.0540541 5:0.0252101 6:-0.814159 7:-0.648663 8:-0.713517 9:-0.695853 10:-0.723966 
59049 1:-1 2:1 3:-1 4:-0.0405405 5:-0.092437 6:-0.79646 7:-0.727643 8:-0.802959 9:-0.720869 10:-0.783757 
59049 1:-1 2:-1 3:1 4:0.445946 5:0.243697 6:-0.725664 7:-0.258721 8:-0.319435 9:-0.486504 10:-0.456901 
59049 1:1 2:-1 3:-1 4:0.0405405 5:0.0420168 6:-0.778761 7:-0.670622 8:-0.746469 9:-0.752469 10:-0.688092 
59049 1:1 2:-1 3:-1 4:-0.418919 5:-0.428571 6:-0.858407 7:-0.909687 8:-0.929388 9:-0.932851 10:-0.913303 
59049 1:-1 2:1 3:-1 4:0.445946 5:0.394958 6:-0.707965 7:-0.166637 8:-0.240081 9:-0.267939 10:-0.41704 
59049 1:-1 2:-1 3:1 4:0.162162 5:0.176471 6:-0.769912 7:-0.577121 8:-0.699395 9:-0.691903 10:-0.554559 
59049 1:1 2:-1 3:-1 4:0.378378 5:0.361345 6:-0.707965 7:-0.212679 8:-0.217888 9:-0.383805 10:-0.456901 
59049 1:-1 2:-1 3:1 4:0.135135 5:0.0588235 6:-0.778761 7:-0.663184 8:-0.752522 9:-0.815668 10:-0.666168 
14287.106574427726 1:1 2:-1 3:-1 4:0.743243 5:0.731092 6:-0.646018 7:0.293076 8:0.234701 9:-0.0375247 10:-0.0363727 
59049 1:-1 2:1 3:-1 4:0.418919 5:0.378151 6:-0.725664 7:-0.264742 8:-0.361802 9:-0.342989 10:-0.444943 
59049 1:-1 2:1 3:-1 4:0.27027 5:0.210084 6:-0.734513 7:-0.481849 8:-0.62542 9:-0.572087 10:-0.567514 
59049 1:1 2:-1 3:-1 4:0.405405 5:0.327731 6:-0.743363 7:-0.322118 8:-0.378615 9:-0.457538 10:-0.497758 
59049 1:-1 2:-1 3:1 4:0.256757 5:0.226891 6:-0.752212 7:-0.529308 8:-0.581036 9:-0.63792 10:-0.625311 
59049 1:-1 2:1 3:-1 4:0.391892 5:0.394958 6:-0.699115 7:-0.36391 8:-0.523874 9:-0.499671 10:-0.504733 
59049 1:1 2:-1 3:-1 4:0.5 5:0.495798 6:-0.690265 7:-0.10572 8:-0.243443 9:-0.194207 10:-0.320379 
41246.436159732017 1:-1 2:1 3:-1 4:0.486486 5:0.226891 6:-0.707965 7:-0.25093 8:-0.519839 9:-0.56682 10:-0.116094 
59049 1:-1 2:1 3:-1 4:0.635135 5:0.495798 6:-0.672566 7:0.231804 8:0.0295898 9:-0.144174 10:-0.0692576 
59049 1:-1 2:1 3:-1 4:0.432432 5:0.445378 6:-0.716814 7:-0.135824 8:-0.2885 9:-0.323239 10:-0.444943 
59049 1:-1 2:-1 3:1 4:0.256757 5:0.243697 6:-0.769912 7:-0.423765 8:-0.507061 9:-0.64187 10:-0.512706 
59049 1:1 2:-1 3:-1 4:0.5 5:0.445378 6:-0.707965 7:-0.128033 8:-0.118359 9:-0.391705 10:-0.398107 
59049 1:-1 2:1 3:-1 4:0.364865 5:0.277311 6:-0.725664 7:-0.379139 8:-0.429724 9:-0.557604 10:-0.519681 
59049 1:-1 2:1 3:-1 4:0.418919 5:0.378151 6:-0.716814 7:-0.198867 8:-0.37458 9:-0.241606 10:-0.409068 
59049 1:1 2:-1 3:-1 4:0.108108 5:0.0252101 6:-0.769912 7:-0.61785 8:-0.65232 9:-0.748519 10:-0.684106 
59049 1:1 2:-1 3:-1 4:0.608108 5:0.546218 6:-0.707965 7:-0.170179 8:-0.29388 9:-0.250823 10:-0.373194 
59049 1:-1 2:1 3:-1 4:0.364865 5:0.344538 6:-0.787611 7:-0.335576 8:-0.464694 9:-0.324556 10:-0.474838 
59049 1:1 2:-1 3:-1 4:-0.283784 5:-0.294118 6:-0.849558 7:-0.871436 8:-0.897781 9:-0.880184 10:-0.873443 
59049 1:1 2:-1 3:-1 4:0.405405 5:0.394958 6:-0.734513 7:-0.369931 8:-0.518494 9:-0.447005 10:-0.514699 
59049 1:1 2:-1 3:-1 4:-0.135135 5:-0.193277 6:-0.79646 7:-0.777581 8:-0.839274 9:-0.844635 10:-0.78276 
59049 1:-1 2:1 3:-1 4:-0.162162 5:-0.12605 6:-0.80531 7:-0.798831 8:-0.836584 9:-0.834101 10:-0.836572 
59049 1:1 2:-1 3:-1 4:0.121622 5:0.12605 6:-0.761062 7:-0.582079 8:-0.675857 9:-0.748519 10:-0.63727 
59049 1:1 2:-1 3:-1 4:0.22973 5:0.277311 6:-0.761062 7:-0.479724 8:-0.560861 9:-0.655036 10:-0.564524 
59049 1:-1 2:1 3:-1 4:0.445946 5:0.445378 6:-0.699115 7:-0.221888 8:-0.312038 9:-0.398288 10:-0.395117 
59049 1:1 2:-1 3:-1 4:0.135135 5:0.092437 6:-0.787611 7:-0.665663 8:-0.736382 9:-0.720869 10:-0.695067 
59049 1:-1 2:-1 3:1 4:0.27027 5:0.260504 6:-0.734513 7:-0.475828 8:-0.527236 9:-0.585253 10:-0.58844 
59049 1:-1 2:1 3:-1 4:0.189189 5:0.210084 6:-0.752212 7:-0.510182 8:-0.582381 9:-0.601053 10:-0.604385 
59049 1:1 2:-1 3:-1 4:0.216216 5:0.243697 6:-0.787611 7:-0.504162 8:-0.552791 9:-0.615537 10:-0.564524 
59049 1:-1 2:1 3:-1 4:0.364865 5:0.294118 6:-0.681416 7:-0.396494 8:-0.508406 9:-0.57077 10:-0.514699 
59049 1:-1 2:1 3:-1 4:0.0540541 5:0.0252101 6:-0.787611 7:-0.663892 8:-0.743107 9:-0.705069 10:-0.684106 
59049 1:-1 2:-1 3:1 4:0.283784 5:0.226891 6:-0.79646 7:-0.528245 8:-0.607935 9:-0.640553 10:-0.586447 
59049 1:-1 2:-1 3:1 4:0.283784 5:0.176471 6:-0.734513 7:-0.522933 8:-0.595831 9:-0.615537 10:-0.584454 
59049 1:-1 2:-1 3:1 4:-0.162162 5:-0.159664 6:-0.831858 7:-0.822915 8:-0.878278 9:-0.856485 10:-0.823617 
59049 1:-1 2:1 3:-1 4:0.432432 5:0.428571 6:-0.734513 7:-0.237117 8:-0.395427 9:-0.254773 10:-0.419033 
59049 1:1 2:-1 3:-1 4:-0.0405405 5:-0.0252101 6:-0.79646 7:-0.785727 8:-0.876933 9:-0.856485 10:-0.763827 
59049 1:1 2:-1 3:-1 4:0.351351 5:0.310924 6:-0.752212 7:-0.47937 8:-0.564223 9:-0.631336 10:-0.530643 
2206.6677953383605 1:-1 2:1 3:-1 4:0.743243 5:0.747899 6:-0.699115 7:0.36816 8:0.226631 9:0.0230415 10:0.0134529 
59049 1:-1 2:1 3:-1 4:0.364865 5:0.411765 6:-0.725664 7:-0.311493 8:-0.422327 9:-0.395655 10:-0.434978 
59049 1:-1 2:1 3:-1 4:-0.175676 5:-0.159664 6:-0.814159 7:-0.802373 8:-0.860794 9:-0.839368 10:-0.823617 
59049 1:1 2:-1 3:-1 4:0.337838 5:0.277311 6:-0.699115 7:-0.383035 8:-0.487559 9:-0.519421 10:-0.463876 
59049 1:1 2:-1 3:-1 4:0.27027 5:0.294118 6:-0.787611 7:-0.394723 8:-0.533961 9:-0.549704 10:-0.524664 
59049 1:1 2:-1 3:-1 4:0.310811 5:0.294118 6:-0.752212 7:-0.313618 8:-0.405514 9:-0.462804 10:-0.474838 
8612.5882687365302 1:1 2:-1 3:-1 4:0.567568 5:0.798319 6:-0.646018 7:0.0933239 8:-0.121722 9:-0.00987492 10:-0.175884 
59049 1:1 2:-1 3:-1 4:0.594595 5:0.563025 6:-0.690265 7:-0.0292191 8:-0.186281 9:-0.158657 10:-0.215745 
59049 1:-1 2:1 3:-1 4:0.324324 5:0.310924 6:-0.778761 7:-0.41314 8:-0.579691 9:-0.531271 10:-0.544594 
59049 1:1 2:-1 3:-1 4:0.418919 5:0.378151 6:-0.725664 7:-0.281388 8:-0.31271 9:-0.352205 10:-0.554559 
59049 1:-1 2:1 3:-1 4:0.472973 5:0.428571 6:-0.699115 7:-0.219054 8:-0.281775 9:-0.342989 10:-0.430992 
59049 1:1 2:-1 3:-1 4:0.337838 5:0.210084 6:-0.769912 7:-0.378077 8:-0.426362 9:-0.486504 10:-0.52865 
59049 1:-1 2:1 3:-1 5:-0.0588235 6:-0.752212 7:-0.678059 8:-0.761264 9:-0.701119 10:-0.723966 
59049 1:-1 2:1 3:-1 4:0.459459 5:0.411765 6:-0.725664 7:-0.290243 8:-0.399462 9:-0.493088 10:-0.426009 
2560.2719081828559 1:1 2:-1 3:-1 4:0.675676 5:0.697479 6:-0.672566 7:0.231096 8:0.188971 9:-0.0230415 10:-0.131041 
59049 1:1 2:-1 3:-1 4:0.648649 5:0.563025 6:-0.734513 7:-0.0285107 8:-0.0349697 9:-0.229756 10:-0.365222 
38675.596444292947 1:-1 2:-1 3:1 4:0.472973 5:0.411765 6:-0.716814 7:-0.358952 8:-0.502354 9:-0.561554 10:-0.390135 
44082.168361522869 1:-1 2:1 3:-1 4:0.581081 5:0.495798 6:-0.707965 7:-0.158137 8:-0.384667 9:-0.21659 10:-0.265571 
59049 1:1 2:-1 3:-1 4:0.405405 5:0.411765 6:-0.752212 7:-0.271472 8:-0.338937 9:-0.429888 10:-0.448929 
59049 1:1 2:-1 3:-1 4:0.351351 5:0.243697 6:-0.752212 7:-0.389764 8:-0.472764 9:-0.403555 10:-0.604385 
59049 1:1 2:-1 3:-1 4:0.418919 5:0.411765 6:-0.699115 7:-0.199929 8:-0.31809 9:-0.285056 10:-0.387145 
59049 1:-1 2:-1 3:1 4:-0.0135135 5:0.00840336 6:-0.707965 7:-0.693288 8:-0.787492 9:-0.724819 10:-0.723966 
59049 1:-1 2:-1 3:1 4:0.445946 5:0.411765 6:-0.699115 7:-0.265805 8:-0.404842 9:-0.366689 10:-0.365222 
4643.4510103783423 1:-1 2:1 3:-1 4:0.662162 5:0.630252 6:-0.654867 7:-0.11422 8:-0.0195024 9:0.0454246 10:-0.0822123 
19739.08447685144 1:-1 2:1 3:-1 4:0.689189 5:0.647059 6:-0.769912 7:0.100761 8:-0.0968393 9:-0.0164582 10:-0.61435 
59049 1:1 2:-1 3:-1 4:0.22973 5:0.277311 6:-0.725664 7:-0.506287 8:-0.613988 9:-0.581303 10:-0.59442 
59049 1:1 2:-1 3:-1 4:0.527027 5:0.596639 6:-0.707965 7:-0.158845 8:-0.360457 9:-0.211323 10:-0.305431 
59049 1:-1 2:1 3:-1 4:0.27027 5:0.294118 6:-0.761062 7:-0.350806 8:-0.424344 9:-0.470704 10:-0.529646 
59049 1:-1 2:-1 3:1 4:0.351351 5:0.277311 6:-0.769912 7:-0.431202 8:-0.577001 9:-0.433838 10:-0.514699 
59049 1:-1 2:1 3:-1 4:0.351351 5:0.310924 6:-0.761062 7:-0.375952 8:-0.488904 9:-0.465438 10:-0.484803 
59049 1:-1 2:1 3:-1 4:0.0540541 5:-0.00840336 6:-0.769912 7:-0.651496 8:-0.739744 9:-0.730086 10:-0.694071 
59049 1:-1 2:1 3:-1 4:0.567568 5:0.529412 6:-0.690265 7:0.169116 8:0.143914 9:-0.115207 10:-0.199801 
59049 1:-1 2:1 3:-1 4:0.0945946 5:0.176471 6:-0.769912 7:-0.549849 8:-0.628783 9:-0.620803 10:-0.584454 
59049 1:1 2:-1 3:-1 5:0.00840336 6:-0.80531 7:-0.688684 8:-0.758574 9:-0.728769 10:-0.703039 
59049 1:1 2:-1 3:-1 4:0.175676 5:0.12605 6:-0.778761 7:-0.536391 8:-0.648958 9:-0.518104 10:-0.65421 
59049 1:1 2:-1 3:-1 4:-0.0135135 5:-0.0420168 6:-0.814159 7:-0.716664 8:-0.825824 9:-0.749835 10:-0.674141 
59049 1:1 2:-1 3:-1 4:0.432432 5:0.394958 6:-0.707965 7:-0.129095 8:-0.190989 9:-0.311389 10:-0.42003 
59049 1:1 2:-1 3:-1 4:0.27027 5:0.243697 6:-0.761062 7:-0.403223 8:-0.499664 9:-0.448321 10:-0.534629 
59049 1:1 2:-1 3:-1 4:0.108108 5:0.0588235 6:-0.752212 7:-0.595892 8:-0.726967 9:-0.628703 10:-0.65421 
59049 1:-1 2:-1 3:1 4:0.202703 5:0.210084 6:-0.716814 7:-0.579954 8:-0.718225 9:-0.627386 10:-0.484803 
59049 1:1 2:-1 3:-1 4:0.256757 5:0.344538 6:-0.752212 7:-0.31291 8:-0.437794 9:-0.329822 10:-0.466866 
59049 1:-1 2:1 3:-1 4:0.162162 5:0.092437 6:-0.743363 7:-0.540287 8:-0.60659 9:-0.500987 10:-0.664175 
59049 1:-1 2:1 3:-1 4:0.5 5:0.512605 6:-0.707965 7:-0.247034 8:-0.383322 9:-0.432521 10:-0.375187 
59049 1:1 2:-1 3:-1 4:0.324324 5:0.243697 6:-0.761062 7:-0.426598 8:-0.542703 9:-0.560237 10:-0.494768 
59049 1:1 2:-1 3:-1 4:-0.256757 5:-0.327731 6:-0.884956 7:-0.874624 8:-0.906523 9:-0.899934 10:-0.883408 
59049 1:-1 2:1 3:-1 4:0.391892 5:0.344538 6:-0.734513 7:-0.310076 8:-0.375925 9:-0.460171 10:-0.451918 
59049 1:1 2:-1 3:-1 4:0.445946 5:0.411765 6:-0.725664 7:-0.305118 8:-0.387357 9:-0.400922 10:-0.472845 
59049 1:-1 2:1 3:-1 4:0.459459 5:0.411765 6:-0.690265 7:-0.155658 8:-0.249496 9:-0.319289 10:-0.372197 
59049 1:1 2:-1 3:-1 4:0.5 5:0.478992 6:-0.690265 7:-0.102178 8:-0.187626 9:-0.287689 10:-0.349278 
59049 1:1 2:-1 3:-1 4:0.297297 5:0.176471 6:-0.663717 7:-0.00548964 8:-0.178884 9:-0.100724 10:-0.227703 
59049 1:-1 2:-1 3:1 4:0.202703 5:0.109244 6:-0.79646 7:-0.589871 8:-0.6577 9:-0.59052 10:-0.717987 
59049 1:-1 2:1 3:-1 4:0.202703 5:0.260504 6:-0.734513 7:-0.485745 8:-0.595158 9:-0.58657 10:-0.534629 
59049 1:1 2:-1 3:-1 4:0.0540541 5:0.00840336 6:-0.778761 7:-0.629184 8:-0.728985 9:-0.64582 10:-0.714001 
59049 1:-1 2:-1 3:1 4:-0.256757 5:-0.310924 6:-0.849558 7:-0.878165 8:-0.906523 9:-0.910467 10:-0.883408 
59049 1:-1 2:1 3:-1 4:-0.189189 5:-0.210084 6:-0.79646 7:-0.809811 8:-0.876261 9:-0.827518 10:-0.826607 
59049 1:1 2:-1 3:-1 4:0.324324 5:0.260504 6:-0.734513 7:-0.412786 8:-0.430397 9:-0.544437 10:-0.566517 
59049 1:-1 2:-1 3:1 4:0.337838 5:0.310924 6:-0.743363 7:-0.47689 8:-0.589778 9:-0.548387 10:-0.639263 
59049 1:-1 2:1 3:-1 4:0.283784 5:0.243697 6:-0.761062 7:-0.398265 8:-0.514459 9:-0.485188 10:-0.464873 
59049 1:1 2:-1 3:-1 4:0.351351 5:0.294118 6:-0.672566 7:-0.275367 8:-0.318763 9:-0.410138 10:-0.507723 
59049 1:-1 2:1 3:-1 4:0.243243 5:0.159664 6:-0.734513 7:-0.431557 8:-0.551446 9:-0.441738 10:-0.584454 
59049 1:-1 2:1 3:-1 4:-0.0945946 5:-0.092437 6:-0.814159 7:-0.743935 8:-0.787492 9:-0.798552 10:-0.763827 
59049 1:-1 2:-1 3:1 4:0.243243 5:0.193277 6:-0.725664 7:-0.5541 8:-0.632145 9:-0.628703 10:-0.641256 
59049 1:1 2:-1 3:-1 4:0.378378 5:0.378151 6:-0.707965 7:-0.374535 8:-0.459987 9:-0.573404 10:-0.456901 
59049 1:-1 2:1 3:-1 4:0.243243 5:0.176471 6:-0.743363 7:-0.516557 8:-0.634835 9:-0.55102 10:-0.59442 
59049 1:1 2:-1 3:-1 4:0.121622 5:0.12605 6:-0.752212 7:-0.50062 8:-0.62542 9:-0.425938 10:-0.644245 
59049 1:1 2:-1 3:-1 4:0.310811 5:0.327731 6:-0.716814 7:-0.348327 8:-0.420309 9:-0.532587 10:-0.484803 
59049 1:1 2:-1 3:-1 4:0.283784 5:0.294118 6:-0.761062 7:-0.378785 8:-0.506389 9:-0.449638 10:-0.474838 
59049 1:1 2:-1 3:-1 4:-0.121622 5:-0.159664 6:-0.849558 7:-0.791039 8:-0.856086 9:-0.815668 10:-0.803687 
59049 1:-1 2:1 3:-1 4:0.364865 5:0.361345 6:-0.787611 7:-0.29768 8:-0.379287 9:-0.373272 10:-0.444943 
59049 1:1 2:-1 3:-1 4:0.0135135 5:-0.0588235 6:-0.752212 7:-0.673809 8:-0.780767 9:-0.801185 10:-0.704036 
59049 1:-1 2:1 3:-1 4:0.337838 5:0.344538 6:-0.707965 7:-0.25093 8:-0.409549 9:-0.423305 10:-0.434978 
59049 1:1 2:-1 3:-1 4:0.351351 5:0.344538 6:-0.725664 7:-0.283868 8:-0.371217 9:-0.452271 10:-0.415047 
59049 1:1 2:-1 3:-1 4:-0.256757 5:-0.294118 6:-0.840708 7:-0.875686 8:-0.924008 9:-0.890718 10:-0.867464 
59049 1:-1 2:-1 3:1 4:0.243243 5:0.226891 6:-0.743363 7:-0.345493 8:-0.466039 9:-0.483871 10:-0.504733 
59049 1:1 2:-1 3:-1 4:0.27027 5:0.294118 6:-0.752212 7:-0.406765 8:-0.522529 9:-0.499671 10:-0.527653 
59049 1:1 2:-1 3:-1 4:0.0675676 5:0.0420168 6:-0.761062 7:-0.631663 8:-0.67922 9:-0.599737 10:-0.714001 
59049 1:-1 2:-1 3:1 4:0.189189 5:0.210084 6:-0.761062 7:-0.496724 8:-0.618023 9:-0.601053 10:-0.514699 
59049 1:-1 2:-1 3:1 4:-0.108108 5:-0.159664 6:-0.814159 7:-0.744643 8:-0.790854 9:-0.815668 10:-0.753861 
59049 1:1 2:-1 3:-1 4:0.418919 5:0.361345 6:-0.725664 7:-0.321764 8:-0.402152 9:-0.503621 10:-0.415047 
1150.3240984724384 1:1 2:-1 3:-1 4:0.364865 5:0.361345 6:-0.725664 7:0.0182398 8:-0.0981843 9:-0.282423 10:-0.414051 
59049 1:1 2:-1 3:-1 4:0.486486 5:0.478992 6:-0.672566 7:-0.0214273 8:-0.0457297 9:-0.210007 10:-0.315396 
42575.766675570274 1:-1 2:1 3:-1 4:0.243243 5:0.327731 6:-0.761062 7:-0.429432 8:-0.568258 9:-0.524687 10:-0.504733 
59049 1:-1 2:-1 3:1 4:0.310811 5:0.310924 6:-0.734513 7:-0.418806 8:-0.505716 9:-0.508887 10:-0.532636 
59049 1:1 2:-1 3:-1 4:0.337838 5:0.277311 6:-0.769912 7:-0.467682 8:-0.531944 9:-0.539171 10:-0.616343 
59049 1:1 2:-1 3:-1 4:0.0945946 5:0.0756303 6:-0.787611 7:-0.58385 8:-0.66039 9:-0.664253 10:-0.660189 
59049 1:1 2:-1 3:-1 4:0.391892 5:0.344538 6:-0.743363 7:-0.241367 8:-0.362475 9:-0.500987 10:-0.434978 
59049 1:-1 2:1 3:-1 4:0.364865 5:0.361345 6:-0.734513 7:-0.296264 8:-0.424344 9:-0.443055 10:-0.484803 
30616.922611800423 1:-1 2:1 3:-1 4:0.418919 5:0.394958 6:-0.663717 7:-0.197804 8:-0.33961 9:-0.317972 10:-0.330344 
59049 1:1 2:-1 3:-1 4:0.0810811 5:0.0756303 6:-0.787611 7:-0.602621 8:-0.661735 9:-0.684003 10:-0.63428 
59049 1:1 2:-1 3:-1 4:0.445946 5:0.361345 6:-0.716814 7:-0.293076 8:-0.33692 9:-0.482554 10:-0.454908 
35033.381018934517 1:-1 2:1 3:-1 4:0.5 5:0.428571 6:-0.716814 7:-0.152116 8:-0.293208 9:-0.119157 10:-0.375187 
59049 1:-1 2:1 3:-1 4:0.0135135 5:-0.0252101 6:-0.79646 7:-0.65008 8:-0.745124 9:-0.693219 10:-0.723966 
59049 1:-1 2:1 3:-1 4:0.0810811 5:0.0756303 6:-0.778761 7:-0.591642 8:-0.62811 9:-0.777485 10:-0.694071 
59049 1:-1 2:1 3:-1 4:0.418919 5:0.411765 6:-0.734513 7:-0.287763 8:-0.406187 9:-0.419355 10:-0.444943 
59049 1:1 2:-1 3:-1 4:0.378378 5:0.361345 6:-0.734513 7:-0.147158 8:-0.219906 9:-0.432521 10:-0.359243 
59049 1:-1 2:-1 3:1 4:0.297297 5:0.260504 6:-0.725664 7:-0.477599 8:-0.579691 9:-0.623436 10:-0.444943 
59049 1:1 2:-1 3:-1 4:0.0405405 5:0.092437 6:-0.761062 7:-0.659996 8:-0.722932 9:-0.678736 10:-0.714001 
59049 1:-1 2:-1 3:1 4:0.189189 5:-0.00840336 6:-0.814159 7:-0.665309 8:-0.714862 9:-0.677419 10:-0.748879 
59049 1:-1 2:1 3:-1 4:0.486486 5:0.428571 6:-0.699115 7:-0.0433859 8:-0.162744 9:-0.269256 10:-0.275536 
59049 1:-1 2:1 3:-1 4:0.243243 5:0.226891 6:-0.734513 7:-0.479724 8:-0.626765 9:-0.511521 10:-0.574489 
59049 1:-1 2:-1 3:1 4:0.202703 5:0.159664 6:-0.769912 7:-0.588808 8:-0.687962 9:-0.64187 10:-0.644245 
59049 1:-1 2:1 3:-1 4:0.554054 5:0.613445 6:-0.690265 7:-0.0880113 8:-0.181574 9:-0.273206 10:-0.317389 
59049 1:1 2:-1 3:-1 4:0.121622 5:0.142857 6:-0.752212 7:-0.612538 8:-0.70343 9:-0.665569 10:-0.704036 
57308.128823897801 1:1 2:-1 3:-1 4:0.0675676 5:0.0252101 6:-0.761062 7:-0.646538 8:-0.777404 9:-0.698486 10:-0.674141 
59049 1:1 2:-1 3:-1 4:0.486486 5:0.563025 6:-0.690265 7:-0.00230211 8:-0.071957 9:-0.15339 10:-0.312407 
59049 1:1 2:-1 3:-1 4:0.0810811 5:0.142857 6:-0.761062 7:-0.582079 8:-0.669805 9:-0.568137 10:-0.604385 
28511.172174799263 1:-1 2:1 3:-1 4:-0.0810811 5:-0.159664 6:-0.814159 7:-0.74606 8:-0.839946 9:-0.785385 10:-0.803687 
59049 1:1 2:-1 3:-1 4:0.189189 5:0.092437 6:-0.761062 7:-0.532849 8:-0.61466 9:-0.449638 10:-0.694071 
59049 1:-1 2:-1 3:1 4:0.351351 5:0.327731 6:-0.761062 7:-0.429786 8:-0.515131 9:-0.537854 10:-0.496761 
59049 1:1 2:-1 3:-1 4:0.432432 5:0.411765 6:-0.690265 7:-0.150699 8:-0.275723 9:-0.277156 10:-0.387145 
59049 1:1 2:-1 3:-1 4:0.0405405 5:0.0756303 6:-0.761062 7:-0.651851 8:-0.751177 9:-0.778802 10:-0.664175 
59049 1:1 2:-1 3:-1 4:0.540541 5:0.529412 6:-0.725664 7:0.0887197 8:-0.139879 9:-0.0572745 10:-0.145989 
59049 1:-1 2:1 3:-1 4:0.405405 5:0.378151 6:-0.734513 7:-0.307243 8:-0.447882 9:-0.485188 10:-0.553563 
59049 1:-1 2:-1 3:1 4:0.0810811 5:0.0420168 6:-0.787611 7:-0.625996 8:-0.664425 9:-0.744569 10:-0.679123 
39681.195610678209 1:1 2:-1 3:-1 4:0.378378 5:0.344538 6:-0.778761 7:-0.273951 8:-0.475454 9:-0.443055 10:-0.504733 
59049 1:-1 2:1 3:-1 4:0.216216 5:0.193277 6:-0.761062 7:-0.499557 8:-0.607263 9:-0.599737 10:-0.534629 
59049 1:-1 2:1 3:-1 4:0.148649 5:0.159664 6:-0.778761 7:-0.593058 8:-0.67922 9:-0.669519 10:-0.63428 
59049 1:1 2:-1 3:-1 4:0.283784 5:0.277311 6:-0.752212 7:-0.461307 8:-0.561533 9:-0.557604 10:-0.486796 
59049 1:-1 2:1 3:-1 4:0.22973 5:0.210084 6:-0.79646 7:-0.582433 8:-0.687962 9:-0.583937 10:-0.644245 
59049 1:1 2:-1 3:-1 4:-0.243243 5:-0.243697 6:-0.831858 7:-0.827519 8:-0.872898 9:-0.838051 10:-0.853513 
59049 1:1 2:-1 3:-1 4:-0.351351 5:-0.344538 6:-0.840708 7:-0.857624 8:-0.918628 9:-0.903884 10:-0.844544 
59049 1:-1 2:-1 3:1 4:-0.027027 5:-0.0756303 6:-0.778761 7:-0.71383 8:-0.774714 9:-0.723502 10:-0.811659 
59049 1:-1 2:1 3:-1 4:0.216216 5:0.12605 6:-0.761062 7:-0.576058 8:-0.696705 9:-0.656353 10:-0.584454 
59049 1:1 2:-1 3:-1 4:0.432432 5:0.411765 6:-0.663717 7:-0.204179 8:-0.207801 9:-0.350889 10:-0.484803 
59049 1:1 2:-1 3:-1 4:0.297297 5:0.294118 6:-0.761062 7:-0.362139 8:-0.489576 9:-0.447005 10:-0.444943 
59049 1:-1 2:1 3:-1 4:-0.175676 5:-0.210084 6:-0.814159 7:-0.819373 8:-0.868191 9:-0.867018 10:-0.833582 
59049 1:-1 2:-1 3:1 4:0.283784 5:0.243697 6:-0.734513 7:-0.430494 8:-0.495629 9:-0.55102 10:-0.514699 
59049 1:-1 2:1 3:-1 4:0.351351 5:0.394958 6:-0.725664 7:-0.210908 8:-0.316745 9:-0.374589 10:-0.325361 
59049 1:-1 2:1 3:-1 4:0.635135 5:0.512605 6:-0.699115 7:-0.0497609 8:-0.117687 9:-0.219223 10:-0.295466 
59049 1:-1 2:1 3:-1 4:0.337838 5:0.277311 6:-0.734513 7:-0.413848 8:-0.480161 9:-0.59052 10:-0.514699 
59049 1:-1 2:-1 3:1 4:-0.0810811 5:-0.092437 6:-0.79646 7:-0.768727 8:-0.812374 9:-0.867018 10:-0.791729 
59049 1:-1 2:1 3:-1 4:0.162162 5:0.0756303 6:-0.79646 7:-0.58385 8:-0.64694 9:-0.685319 10:-0.670154 
59049 1:-1 2:1 3:-1 4:0.0675676 5:0.0252101 6:-0.769912 7:-0.66708 8:-0.756557 9:-0.701119 10:-0.704036 
59049 1:-1 2:1 3:-1 4:0.216216 5:0.210084 6:-0.734513 7:-0.501682 8:-0.558843 9:-0.61422 10:-0.606378 
59049 1:1 2:-1 3:-1 4:-0.256757 5:-0.327731 6:-0.849558 7:-0.849478 8:-0.866846 9:-0.878868 10:-0.883408 
59049 1:1 2:-1 3:-1 4:0.337838 5:0.361345 6:-0.752212 7:-0.326014 8:-0.400807 9:-0.457538 10:-0.514699 
59049 1:-1 2:1 3:-1 4:0.486486 5:0.428571 6:-0.725664 7:-0.148929 8:-0.212508 9:-0.371955 10:-0.368211 
56870.173273629545 1:-1 2:1 3:-1 4:0.486486 5:0.462185 6:-0.690265 7:-0.128033 8:-0.252858 9:-0.350889 10:-0.275536 
59049 1:1 2:-1 3:-1 4:0.324324 5:0.327731 6:-0.725664 7:-0.25093 8:-0.364492 9:-0.369322 10:-0.474838 
59049 1:1 2:-1 3:-1 4:0.418919 5:0.478992 6:-0.690265 7:-0.0876572 8:-0.186281 9:-0.274523 10:-0.316393 
59049 1:1 2:-1 3:-1 4:0.405405 5:0.327731 6:-0.752212 7:-0.407827 8:-0.468056 9:-0.490454 10:-0.570503 
59049 1:-1 2:1 3:-1 4:0.202703 5:0.176471 6:-0.787611 7:-0.557287 8:-0.645595 9:-0.628703 10:-0.642252 
59049 1:1 2:-1 3:-1 4:0.310811 5:0.344538 6:-0.725664 7:-0.436869 8:-0.544048 9:-0.500987 10:-0.519681 
23982.024494816033 1:-1 2:1 3:-1 4:0.283784 5:0.378151 6:-0.681416 7:-0.142554 8:-0.564896 9:-0.461488 10:0.0433483 
59049 1:1 2:-1 3:-1 4:0.635135 5:0.546218 6:-0.716814 7:-0.12697 8:-0.170141 9:-0.310072 10:-0.355257 
59049 1:-1 2:1 3:-1 4:0.27027 5:0.193277 6:-0.778761 7:-0.510182 8:-0.60121 9:-0.616853 10:-0.584454 
59049 1:1 2:-1 3:-1 4:0.554054 5:0.495798 6:-0.725664 7:-0.149991 8:-0.241426 9:-0.175774 10:-0.41704 
59049 1:1 2:-1 3:-1 4:0.391892 5:0.344538 6:-0.725664 7:-0.374181 8:-0.479489 9:-0.506254 10:-0.454908 
59049 1:-1 2:1 3:-1 4:0.445946 5:0.327731 6:-0.769912 7:-0.383389 8:-0.478144 9:-0.549704 10:-0.460887 
59049 1:1 2:-1 3:-1 4:0.22973 5:0.210084 6:-0.752212 7:-0.488578 8:-0.583726 9:-0.560237 10:-0.59442 
59049 1:-1 2:-1 3:1 4:-0.202703 5:-0.210084 6:-0.823009 7:-0.824332 8:-0.863484 9:-0.868334 10:-0.833582 
59049 1:1 2:-1 3:-1 4:0.0405405 5:-0.00840336 6:-0.787611 7:-0.636621 8:-0.700067 9:-0.716919 10:-0.691081 
59049 1:1 2:-1 3:-1 4:0.364865 5:0.361345 6:-0.734513 7:-0.258367 8:-0.301278 9:-0.491771 10:-0.395117 
59049 1:-1 2:-1 3:1 4:0.351351 5:0.327731 6:-0.761062 7:-0.41739 8:-0.547411 9:-0.444371 10:-0.526657 
5892.2768316885549 1:-1 2:1 3:-1 4:0.283784 5:0.260504 6:-0.725664 7:-0.445369 8:-0.612643 9:-0.403555 10:-0.538615 
59049 1:-1 2:1 3:-1 4:0.324324 5:0.294118 6:-0.725664 7:-0.335931 8:-0.426362 9:-0.437788 10:-0.464873 
59049 1:-1 2:1 3:-1 4:0.77027 5:0.747899 6:-0.672566 7:0.32991 8:0.250841 9:-0.000658328 10:-0.0413553 
59049 1:-1 2:1 3:-1 4:-0.0945946 5:-0.109244 6:-0.79646 7:-0.727289 8:-0.779422 9:-0.736669 10:-0.806677 
59049 1:1 2:-1 3:-1 4:0.486486 5:0.462185 6:-0.787611 7:-0.380556 8:-0.38803 9:-0.527321 10:-0.538615 
59049 1:-1 2:1 3:-1 4:-0.027027 5:-0.00840336 6:-0.787611 7:-0.676642 8:-0.743107 9:-0.737986 10:-0.743896 
59049 1:1 2:-1 3:-1 4:0.148649 5:0.0756303 6:-0.734513 7:-0.550912 8:-0.66039 9:-0.619487 10:-0.624315 
9656.4435308909433 1:-1 2:1 3:-1 4:0.824324 5:0.663866 6:-0.654867 7:0.296618 8:0.114997 9:-0.0375247 10:-0.126059 
59049 1:-1 2:1 3:-1 4:0.364865 5:0.294118 6:-0.778761 7:-0.445015 8:-0.513114 9:-0.486504 10:-0.61435 
59049 1:1 2:-1 3:-1 4:0.27027 5:0.327731 6:-0.734513 7:-0.378431 8:-0.480834 9:-0.60632 10:-0.479821 
32718.819035200431 1:-1 2:-1 3:1 4:0.635135 5:0.596639 6:-0.672566 7:-0.215513 8:-0.410894 9:-0.356155 10:-0.325361 
20897.828154104605 1:1 2:-1 3:-1 4:0.5 5:0.462185 6:-0.663717 7:-0.167345 8:-0.337592 9:-0.115207 10:-0.434978 
18799.105548030475 1:1 2:-1 3:-1 4:0.418919 5:0.462185 6:-0.628319 7:0.40641 8:0.35037 9:0.102041 10:-0.0244145 
59049 1:-1 2:1 3:-1 4:-0.22973 5:-0.294118 6:-0.840708 7:-0.848061 8:-0.872226 9:-0.903884 10:-0.856502 
59049 1:1 2:-1 3:-1 4:-0.162162 5:-0.142857 6:-0.823009 7:-0.799894 8:-0.858104 9:-0.803818 10:-0.803687 
59049 1:-1 2:1 3:-1 4:0.459459 5:0.361345 6:-0.734513 7:-0.274305 8:-0.337592 9:-0.472021 10:-0.455904 
59049 1:-1 2:1 3:-1 4:0.351351 5:0.327731 6:-0.761062 7:-0.414556 8:-0.514459 9:-0.565504 10:-0.532636 
59049 1:-1 2:-1 3:1 4:0.310811 5:0.294118 6:-0.752212 7:-0.417036 8:-0.460659 9:-0.635286 10:-0.514699 
59049 1:1 2:-1 3:-1 4:-0.162162 5:-0.226891 6:-0.814159 7:-0.795644 8:-0.837929 9:-0.820935 10:-0.8286 
59049 1:-1 2:-1 3:1 4:0.256757 5:0.210084 6:-0.80531 7:-0.562954 8:-0.6308 9:-0.60632 10:-0.651221 
59049 1:-1 2:1 3:-1 4:0.162162 5:0.109244 6:-0.761062 7:-0.563308 8:-0.663753 9:-0.691903 10:-0.604385 
59049 1:-1 2:-1 3:1 4:0.324324 5:0.361345 6:-0.725664 7:-0.384098 8:-0.496301 9:-0.435155 10:-0.504733 
59049 1:-1 2:-1 3:1 4:0.310811 5:0.243697 6:-0.752212 7:-0.351514 8:-0.462677 9:-0.481238 10:-0.484803 
59049 1:-1 2:1 3:-1 4:-0.135135 5:-0.193277 6:-0.831858 7:-0.842394 8:-0.896436 9:-0.859118 10:-0.843548 
59049 1:1 2:-1 3:-1 4:0.337838 5:0.294118 6:-0.725664 7:-0.210908 8:-0.359112 9:-0.391705 10:-0.464873 
59049 1:-1 2:-1 3:1 4:-0.0135135 5:-0.0252101 6:-0.787611 7:-0.656455 8:-0.737054 9:-0.716919 10:-0.684106 
59049 1:-1 2:1 3:-1 4:0.0405405 5:0.092437 6:-0.769912 7:-0.548787 8:-0.597848 9:-0.599737 10:-0.684106 
59049 1:1 2:-1 3:-1 4:0.0540541 5:0.0252101 6:-0.769912 7:-0.628475 8:-0.718225 9:-0.689269 10:-0.674141 
59049 1:-1 2:1 3:-1 4:0.364865 5:0.411765 6:-0.761062 7:-0.346202 8:-0.475454 9:-0.56682 10:-0.454908 
59049 1:-1 2:1 3:-1 4:0.148649 5:0.109244 6:-0.814159 7:-0.648663 8:-0.759919 9:-0.712969 10:-0.664175 
13064.378391199445 1:1 2:-1 3:-1 4:0.810811 5:0.747899 6:-0.646018 7:0.333097 8:0.281775 9:-0.116524 10:-0.0164425 
59049 1:-1 2:-1 3:1 4:0.0135135 5:-0.0252101 6:-0.761062 7:-0.687622 8:-0.735709 9:-0.770902 10:-0.768809 
59049 1:1 2:-1 3:-1 4:0.121622 5:0.12605 6:-0.734513 7:-0.595537 8:-0.698722 9:-0.674786 10:-0.664175 
59049 1:-1 2:1 3:-1 4:0.5 5:0.411765 6:-0.725664 7:-0.292722 8:-0.39341 9:-0.337722 10:-0.474838 
59049 1:-1 2:-1 3:1 4:0.135135 5:0.12605 6:-0.778761 7:-0.530016 8:-0.619368 9:-0.57472 10:-0.604385 
59049 1:1 2:-1 3:-1 4:-0.0405405 5:-0.00840336 6:-0.80531 7:-0.71383 8:-0.776059 9:-0.788018 10:-0.733931 
52344.152649153715 1:-1 2:1 3:-1 4:-0.175676 5:-0.092437 6:-0.80531 7:-0.781477 8:-0.839946 9:-0.806452 10:-0.793722 
59049 1:1 2:-1 3:-1 4:0.445946 5:0.411765 6:-0.725664 7:-0.174075 8:-0.256221 9:-0.371955 10:-0.346288 
59049 1:1 2:-1 3:-1 4:0.459459 5:0.344538 6:-0.734513 7:-0.340181 8:-0.487559 9:-0.350889 10:-0.481814 
59049 1:1 2:-1 3:-1 4:0.527027 5:0.546218 6:-0.858407 7:-0.263326 8:-0.308675 9:-0.539171 10:-0.65421 
59049 1:-1 2:1 3:-1 4:0.189189 5:0.176471 6:-0.787611 7:-0.543829 8:-0.61197 9:-0.631336 10:-0.650224 
59049 1:-1 2:1 3:-1 4:0.432432 5:0.411765 6:-0.690265 7:-0.0224898 8:-0.182246 9:-0.389072 10:-0.208769 
59049 1:-1 2:-1 3:1 4:-0.0810811 5:-0.142857 6:-0.80531 7:-0.791394 8:-0.835911 9:-0.851218 10:-0.804684 
16387.405711621112 1:-1 2:1 3:-1 4:0.540541 5:0.529412 6:-0.681416 7:0.145741 8:0.0497646 9:-0.15339 10:-0.0712506 
59049 1:1 2:-1 3:-1 4:0.148649 5:0.193277 6:-0.734513 7:-0.532495 8:-0.62273 9:-0.640553 10:-0.564524 
59049 1:-1 2:1 3:-1 4:-0.0135135 5:-0.0420168 6:-0.823009 7:-0.681955 8:-0.748487 9:-0.772219 10:-0.743896 
59049 1:-1 2:1 3:-1 4:0.513514 5:0.512605 6:-0.725664 7:-0.0880113 8:-0.202421 9:-0.174457 10:-0.315396 
6149.2788450057542 1:1 2:-1 3:-1 4:0.0405405 5:-0.0420168 6:-0.761062 7:-0.650788 8:-0.778749 9:-0.693219 10:-0.63428 
59049 1:-1 2:-1 3:1 4:0.0675676 5:0.0588235 6:-0.752212 7:-0.648309 8:-0.71957 9:-0.678736 10:-0.714001 
59049 1:-1 2:1 3:-1 4:-0.0135135 5:-0.0420168 6:-0.769912 7:-0.704268 8:-0.795562 9:-0.697169 10:-0.743896 
59049 1:-1 2:-1 3:1 4:0.202703 5:0.159664 6:-0.743363 7:-0.533912 8:-0.642233 9:-0.723502 10:-0.564524 
59049 1:1 2:-1 3:-1 4:0.175676 5:0.159664 6:-0.752212 7:-0.539933 8:-0.67115 9:-0.56287 10:-0.63428 
59049 1:-1 2:1 3:-1 4:0.513514 5:0.462185 6:-0.690265 7:-0.120595 8:-0.220578 9:-0.17709 10:-0.395117 
59049 1:1 2:-1 3:-1 4:0.108108 5:0.159664 6:-0.761062 7:-0.531787 8:-0.580363 9:-0.640553 10:-0.604385 
46641.208650405577 1:-1 2:1 3:-1 4:0.702703 5:0.613445 6:-0.610619 7:0.320347 8:0.248151 9:0.00855826 10:-0.127055 
59049 1:1 2:-1 3:-1 4:0.378378 5:0.411765 6:-0.734513 7:-0.247034 8:-0.286483 9:-0.477288 10:-0.428002 
59049 1:-1 2:-1 3:1 4:0.202703 5:0.092437 6:-0.752212 7:-0.629538 8:-0.762609 9:-0.698486 10:-0.63428 
59049 1:1 2:-1 3:-1 4:0.256757 5:0.226891 6:-0.761062 7:-0.429432 8:-0.532616 9:-0.528637 10:-0.534629 
59049 1:-1 2:1 3:-1 4:0.472973 5:0.495798 6:-0.734513 7:-0.0855321 8:-0.199731 9:-0.175774 10:-0.297459 
59049 1:-1 2:1 3:-1 4:0.310811 5:0.310924 6:-0.725664 7:-0.134408 8:-0.252858 9:-0.152074 10:-0.465869 
59049 1:1 2:-1 3:-1 4:0.283784 5:0.243697 6:-0.734513 7:-0.412431 8:-0.448554 9:-0.536537 10:-0.5715 
59049 1:-1 2:-1 3:1 4:0.202703 5:0.193277 6:-0.752212 7:-0.532141 8:-0.62811 9:-0.591837 10:-0.612357 
59049 1:1 2:-1 3:-1 4:0.0135135 5:-0.0588235 6:-0.778761 7:-0.754206 8:-0.841291 9:-0.723502 10:-0.773792 
59049 1:1 2:-1 3:-1 4:0.216216 5:0.159664 6:-0.752212 7:-0.482557 8:-0.552118 9:-0.58657 10:-0.664175 
59049 1:-1 2:1 3:-1 4:0.364865 5:0.327731 6:-0.672566 7:-0.296264 8:-0.470746 9:-0.285056 10:-0.434978 
59049 1:-1 2:-1 3:1 4:0.364865 5:0.310924 6:-0.734513 7:-0.373473 8:-0.486214 9:-0.450955 10:-0.494768 
59049 1:-1 2:1 3:-1 4:0.27027 5:0.210084 6:-0.646018 7:-0.03949 8:-0.238736 9:-0.163924 10:-0.199801 
59049 1:-1 2:1 3:-1 4:0.540541 5:0.563025 6:-0.699115 7:-0.153533 8:-0.29388 9:-0.231073 10:-0.371201 
59049 1:1 2:-1 3:-1 4:0.527027 5:0.579832 6:-0.672566 7:0.207721 8:0.0248823 9:0.105991 10:-0.119083 
59049 1:-1 2:-1 3:1 4:-0.22973 5:-0.260504 6:-0.80531 7:-0.836019 8:-0.873571 9:-0.863068 10:-0.833582 
59049 1:-1 2:1 3:-1 4:0.594595 5:0.512605 6:-0.716814 7:-0.0865947 8:-0.152656 9:-0.231073 10:-0.365222 
59049 1:1 2:-1 3:-1 4:0.5 5:0.478992 6:-0.716814 7:-0.2272 8:-0.332885 9:-0.419355 10:-0.375187 
59049 1:-1 2:1 3:-1 4:0.5 5:0.462185 6:-0.60177 7:-0.0550735 8:-0.0860794 9:-0.319289 10:-0.356253 
59049 1:-1 2:-1 3:1 4:0.351351 5:0.243697 6:-0.761062 7:-0.437223 8:-0.511769 9:-0.485188 10:-0.526657 
59049 1:-1 2:1 3:-1 4:0.121622 5:0.109244 6:-0.778761 7:-0.619267 8:-0.70881 9:-0.664253 10:-0.674141 
23169.842395616462 1:-1 2:1 3:-1 4:0.743243 5:0.714286 6:-0.699115 7:0.141137 8:-0.0289173 9:-0.144174 10:-0.017439 
52306.907460577044 1:-1 2:1 3:-1 4:0.459459 5:0.495798 6:-0.690265 7:-0.0260315 8:-0.250168 9:-0.132324 10:-0.421026 
59049 1:1 2:-1 3:-1 4:0.324324 5:0.344538 6:-0.725664 7:-0.338764 8:-0.435104 9:-0.519421 10:-0.484803 
59049 1:-1 2:-1 3:1 4:0.22973 5:0.260504 6:-0.761062 7:-0.55835 8:-0.671822 9:-0.61817 10:-0.577479 
8001.0322670843734 1:1 2:-1 3:-1 4:0.486486 5:0.428571 6:-0.743363 7:-0.232867 8:-0.376597 9:-0.357472 10:-0.351271 
59049 1:-1 2:1 3:-1 4:0.162162 5:0.142857 6:-0.743363 7:-0.539933 8:-0.63887 9:-0.59842 10:-0.59442 
59049 1:-1 2:1 3:-1 4:0.486486 5:0.462185 6:-0.743363 7:-0.349743 8:-0.413584 9:-0.544437 10:-0.444943 
59049 1:-1 2:-1 3:1 4:-0.0675676 5:-0.092437 6:-0.823009 7:-0.740747 8:-0.776059 9:-0.836735 10:-0.776781 
59049 1:1 2:-1 3:-1 4:0.364865 5:0.344538 6:-0.734513 7:-0.284576 8:-0.330868 9:-0.444371 10:-0.437967 
59049 1:-1 2:1 3:-1 4:0.472973 5:0.445378 6:-0.690265 7:-0.140429 8:-0.268325 9:-0.335089 10:-0.315396 
59049 1:1 2:-1 3:-1 4:0.202703 5:0.327731 6:-0.734513 7:-0.367452 8:-0.515131 9:-0.511521 10:-0.534629 
29489.333083254489 1:-1 2:-1 3:1 4:0.527027 5:0.462185 6:-0.761062 7:-0.222242 8:-0.34499 9:-0.341672 10:-0.42003 
59049 1:1 2:-1 3:-1 4:0.0135135 5:-0.00840336 6:-0.823009 7:-0.741101 8:-0.804304 9:-0.734036 10:-0.763827 
59049 1:1 2:-1 3:-1 4:-0.0810811 5:-0.0252101 6:-0.761062 7:-0.727643 8:-0.829186 9:-0.816985 10:-0.708022 
59049 1:-1 2:-1 3:1 4:0.148649 5:0.109244 6:-0.734513 7:-0.557641 8:-0.650975 9:-0.56287 10:-0.684106 
59049 1:-1 2:1 3:-1 4:0.337838 5:0.394958 6:-0.752212 7:-0.384452 8:-0.483524 9:-0.445688 10:-0.541604 
59049 1:-1 2:1 3:-1 4:0.716216 5:0.495798 6:-0.734513 7:-0.0688861 8:-0.0820444 9:-0.260039 10:-0.444943 
59049 1:-1 2:1 3:-1 4:0.0810811 5:-0.00840336 6:-0.79646 7:-0.681247 8:-0.770679 9:-0.759052 10:-0.694071 
59049 1:-1 2:1 3:-1 4:0.175676 5:0.159664 6:-0.752212 7:-0.424473 8:-0.383995 9:-0.483871 10:-0.61435 
20418.901345565391 1:-1 2:1 3:-1 4:0.554054 5:0.579832 6:-0.663717 7:-0.0203648 8:0.192334 9:-0.186307 10:-0.195815 
10515.500888802386 1:-1 2:1 3:-1 4:0.635135 5:0.663866 6:-0.646018 7:0.129095 8:-0.295225 9:0.0717577 10:0.16293 
59049 1:-1 2:1 3:-1 4:0.527027 5:0.445378 6:-0.743363 7:-0.198512 8:-0.258238 9:-0.341672 10:-0.402093 
59049 1:1 2:-1 3:-1 4:0.310811 5:0.344538 6:-0.707965 7:-0.392244 8:-0.461332 9:-0.55497 10:-0.514699 
59049 1:-1 2:-1 3:1 4:0.189189 5:0.0756303 6:-0.752212 7:-0.540641 8:-0.66577 9:-0.63002 10:-0.561535 
59049 1:-1 2:1 3:-1 4:0.378378 5:0.277311 6:-0.690265 7:-0.305826 8:-0.455952 9:-0.344305 10:-0.464873 
59049 1:-1 2:-1 3:1 4:0.432432 5:0.277311 6:-0.769912 7:-0.362139 8:-0.420309 9:-0.54312 10:-0.484803 
59049 1:-1 2:1 3:-1 4:0.405405 5:0.378151 6:-0.734513 7:-0.275013 8:-0.447209 9:-0.278473 10:-0.427005 
59049 1:1 2:-1 3:-1 4:-0.0135135 5:0.0420168 6:-0.778761 7:-0.635913 8:-0.7115 9:-0.701119 10:-0.694071 
59049 1:-1 2:-1 3:1 4:-0.175676 5:-0.260504 6:-0.823009 7:-0.841686 8:-0.893746 9:-0.872284 10:-0.833582 
59049 1:1 2:-1 3:-1 4:0.364865 5:0.260504 6:-0.769912 7:-0.436161 8:-0.510424 9:-0.545754 10:-0.547583 
59049 1:1 2:-1 3:-1 4:0.0540541 5:0.176471 6:-0.761062 7:-0.450682 8:-0.414929 9:-0.549704 10:-0.713004 
59049 1:-1 2:1 3:-1 4:0.148649 5:0.109244 6:-0.79646 7:-0.520808 8:-0.605245 9:-0.63792 10:-0.61435 
59049 1:-1 2:-1 3:1 4:0.0135135 5:-0.00840336 6:-0.752212 7:-0.665663 8:-0.718897 9:-0.714286 10:-0.748879 
59049 1:1 2:-1 3:-1 4:0.567568 5:0.546218 6:-0.716814 7:-0.0734903 8:-0.257566 9:-0.0296248 10:-0.315396 
22184.584165105349 1:1 2:-1 3:-1 4:0.432432 5:0.462185 6:-0.743363 7:-0.0805738 8:-0.305985 9:-0.136274 10:-0.385152 
59049 1:1 2:-1 3:-1 4:0.148649 5:0.12605 6:-0.769912 7:-0.499203 8:-0.631473 9:-0.55892 10:-0.644245 
59049 1:-1 2:-1 3:1 4:-0.121622 5:-0.142857 6:-0.823009 7:-0.797769 8:-0.847344 9:-0.834101 10:-0.813652 
25527.961727830894 1:1 2:-1 3:-1 4:0.743243 5:0.663866 6:-0.637168 7:0.503807 8:0.539341 9:0.163924 10:0.0154459 
10277.831097995206 1:1 2:-1 3:-1 4:0.527027 5:0.512605 6:-0.725664 7:-0.00796883 8:-0.0531271 9:-0.302172 10:-0.335326 
59049 1:-1 2:1 3:-1 4:-0.0135135 5:0.00840336 6:-0.79646 7:-0.707455 8:-0.788164 9:-0.757735 10:-0.741903 
59049 1:-1 2:1 3:-1 4:0.432432 5:0.327731 6:-0.654867 7:-0.223659 8:-0.354405 9:-0.238973 10:-0.375187 
59049 1:1 2:-1 3:-1 4:0.364865 5:0.378151 6:-0.743363 7:-0.373118 8:-0.408877 9:-0.565504 10:-0.474838 
59049 1:-1 2:1 3:-1 4:0.5 5:0.478992 6:-0.707965 7:-0.0752612 8:-0.195696 9:-0.253456 10:-0.375187 
59049 1:-1 2:1 3:-1 4:0.364865 5:0.378151 6:-0.743363 7:-0.302639 8:-0.3692 9:-0.433838 10:-0.504733 
11057.552572277325 1:-1 2:1 3:-1 4:0.256757 5:0.109244 6:-0.752212 7:-0.459182 8:-0.562206 9:-0.695853 10:-0.531639 
59049 1:-1 2:1 3:-1 4:0.148649 5:0.0756303 6:-0.752212 7:-0.573579 8:-0.675857 9:-0.628703 10:-0.646238 
59049 1:-1 2:-1 3:1 4:0.297297 5:0.277311 6:-0.743363 7:-0.507349 8:-0.648958 9:-0.58657 10:-0.524664 
58892.451755695882 1:1 2:-1 3:-1 4:0.351351 5:0.310924 6:-0.743363 7:-0.38091 8:-0.490921 9:-0.576037 10:-0.464873 
59049 1:-1 2:1 3:-1 4:-0.0810811 5:-0.0420168 6:-0.769912 7:-0.741101 8:-0.804976 9:-0.768269 10:-0.763827 
59049 1:-1 2:1 3:-1 4:0.162162 5:0.0756303 6:-0.681416 7:-0.599079 8:-0.688635 9:-0.607637 10:-0.664175 
59049 1:1 2:-1 3:-1 4:-0.175676 5:-0.226891 6:-0.823009 7:-0.812644 8:-0.846671 9:-0.840685 10:-0.853513 
59049 1:-1 2:1 3:-1 4:0.202703 5:0.193277 6:-0.725664 7:-0.486453 8:-0.609953 9:-0.518104 10:-0.534629 
59049 1:-1 2:-1 3:1 4:0.283784 5:0.243697 6:-0.743363 7:-0.370993 8:-0.419637 9:-0.55102 10:-0.532636 
59049 1:-1 2:1 3:-1 4:0.540541 5:0.512605 6:-0.707965 7:-0.0678236 8:-0.261601 9:-0.207373 10:-0.335326 
59049 1:1 2:-1 3:-1 4:0.351351 5:0.394958 6:-0.752212 7:-0.408181 8:-0.532616 9:-0.544437 10:-0.524664 
59049 1:-1 2:-1 3:1 4:-0.0810811 5:-0.092437 6:-0.823009 7:-0.773685 8:-0.794889 9:-0.844635 10:-0.793722 
59049 1:1 2:-1 3:-1 4:0.648649 5:0.563025 6:-0.707965 7:0.0745529 8:-0.061197 9:-0.0309414 10:-0.20578 
59049 1:-1 2:1 3:-1 4:0.540541 5:0.495798 6:-0.716814 7:-0.11847 8:-0.264963 9:-0.140224 10:-0.405082 
59049 1:1 2:-1 3:-1 4:0.5 5:0.445378 6:-0.716814 7:-0.120949 8:-0.163416 9:-0.277156 10:-0.405082 
59049 1:1 2:-1 3:-1 4:-0.0675676 5:-0.0420168 6:-0.778761 7:-0.683018 8:-0.779422 9:-0.705069 10:-0.715994 
59049 1:-1 2:-1 3:1 4:0.364865 5:0.294118 6:-0.743363 7:-0.441473 8:-0.527236 9:-0.568137 10:-0.520678 
-59049 1:1 2:-1 3:-1 4:0.662162 5:0.630252 6:-0.672566 7:0.209846 8:0.0376597 9:0.0138249 10:-0.141006 
-59049 1:1 2:-1 3:-1 4:0.027027 5:-0.00840336 6:-0.814159 7:-0.717372 8:-0.789509 9:-0.782752 10:-0.733931 
-59049 1:-1 2:1 3:-1 4:0.202703 5:0.176471 6:-0.79646 7:-0.451744 8:-0.570948 9:-0.515471 10:-0.564524 
-18519.40446236734 1:-1 2:-1 3:1 4:0.148649 5:0.0756303 6:-0.752212 7:-0.605454 8:-0.68191 9:-0.64582 10:-0.666168 
-28865.842934160992 1:-1 2:-1 3:1 4:-0.256757 5:-0.310924 6:-0.867257 7:-0.873915 8:-0.880296 9:-0.936801 10:-0.893373 
-59049 1:-1 2:1 3:-1 4:0.513514 5:0.445378 6:-0.707965 7:-0.0844696 8:-0.102892 9:-0.315339 10:-0.461883 
-59049 1:-1 2:-1 3:1 4:0.243243 5:0.159664 6:-0.769912 7:-0.536037 8:-0.62004 9:-0.57472 10:-0.65421 
-59049 1:-1 2:-1 3:1 4:0.189189 5:0.159664 6:-0.761062 7:-0.508057 8:-0.570948 9:-0.670836 10:-0.65421 
-59049 1:1 2:-1 3:-1 4:0.418919 5:0.428571 6:-0.840708 7:-0.257659 8:-0.386685 9:-0.294273 10:-0.444943 
-59049 1:-1 2:1 3:-1 4:0.432432 5:0.394958 6:-0.725664 7:-0.311493 8:-0.472764 9:-0.411455 10:-0.336323 
-59049 1:1 2:-1 3:-1 4:0.391892 5:0.428571 6:-0.716814 7:-0.107491 8:-0.236718 9:-0.283739 10:-0.335326 
-31509.849387408576 1:1 2:-1 3:-1 4:0.445946 5:0.445378 6:-0.716814 7:-0.282805 8:-0.286483 9:-0.443055 10:-0.521674 
-59049 1:1 2:-1 3:-1 4:0.337838 5:0.327731 6:-0.752212 7:-0.438286 8:-0.546066 9:-0.611587 10:-0.514699 
-59049 1:-1 2:1 3:-1 4:0.148649 5:0.0588235 6:-0.761062 7:-0.682663 8:-0.770679 9:-0.723502 10:-0.694071 
-59049 1:-1 2:-1 3:1 4:0.22973 5:0.260504 6:-0.752212 7:-0.52187 8:-0.600538 9:-0.747202 10:-0.544594 
-59049 1:-1 2:1 3:-1 4:0.405405 5:0.428571 6:-0.716814 7:-0.144679 8:-0.298588 9:-0.221856 10:-0.365222 
-26639.007377907405 1:1 2:-1 3:-1 4:0.756757 5:0.663866 6:-0.646018 7:0.0681778 8:0.173504 9:0.121791 10:0.0104634 
-59049 1:-1 2:1 3:-1 4:0.662162 5:0.630252 6:-0.725664 7:0.0285107 8:-0.162071 9:-0.183673 10:-0.22571 
-22342.551097630676 1:-1 2:-1 3:1 4:-0.0945946 5:-0.092437 6:-0.80531 7:-0.770498 8:-0.823134 9:-0.803818 10:-0.801694 
-59049 1:-1 2:1 3:-1 4:0.283784 5:0.277311 6:-0.752212 7:-0.473703 8:-0.534633 9:-0.54312 10:-0.55157 
-59049 1:-1 2:1 3:-1 4:0.405405 5:0.411765 6:-0.716814 7:-0.193554 8:-0.265636 9:-0.393022 10:-0.46288 
-59049 1:-1 2:1 3:-1 4:-0.027027 5:-0.092437 6:-0.79646 7:-0.724101 8:-0.794217 9:-0.753785 10:-0.763827 
-59049 1:1 2:-1 3:-1 4:-0.0675676 5:-0.0252101 6:-0.814159 7:-0.69683 8:-0.765972 9:-0.748519 10:-0.743896 
-23423.700905541456 1:-1 2:1 3:-1 4:-0.121622 5:-0.159664 6:-0.716814 7:-0.740747 8:-0.768662 9:-0.815668 10:-0.793722 
-59049 1:1 2:-1 3:-1 4:0.297297 5:0.277311 6:-0.752212 7:-0.470515 8:-0.542703 9:-0.568137 10:-0.576482 
-59049 1:-1 2:-1 3:1 4:0.175676 5:0.176471 6:-0.761062 7:-0.456703 8:-0.509751 9:-0.583937 10:-0.644245 
-59049 1:1 2:-1 3:-1 4:0.472973 5:0.394958 6:-0.761062 7:-0.279263 8:-0.286483 9:-0.473338 10:-0.509716 
-59049 1:1 2:-1 3:-1 4:0.364865 5:0.310924 6:-0.716814 7:-0.304409 8:-0.3423 9:-0.472021 10:-0.464873 
-59049 1:1 2:-1 3:-1 4:0.337838 5:0.294118 6:-0.690265 7:-0.334514 8:-0.489576 9:-0.399605 10:-0.438964 
-59049 1:1 2:-1 3:-1 4:0.567568 5:0.563025 6:-0.707965 7:-0.00301045 8:-0.213181 9:-0.235023 10:-0.195815 
-59049 1:1 2:-1 3:-1 4:0.5 5:0.394958 6:-0.743363 7:-0.221888 8:-0.30195 9:-0.316656 10:-0.452915 
-59049 1:-1 2:1 3:-1 4:0.297297 5:0.243697 6:-0.752212 7:-0.319285 8:-0.409549 9:-0.411455 10:-0.524664 
-59049 1:1 2:-1 3:-1 4:-0.22973 5:-0.193277 6:-0.823009 7:-0.852311 8:-0.912576 9:-0.863068 10:-0.853513 
-59049 1:-1 2:1 3:-1 4:0.364865 5:0.327731 6:-0.743363 7:-0.196033 8:-0.250168 9:-0.421988 10:-0.425012 
-59049 1:-1 2:1 3:-1 4:0.027027 5:0.00840336 6:-0.787611 7:-0.683018 8:-0.763282 9:-0.727452 10:-0.704036 
-20788.509021908805 1:1 2:-1 3:-1 4:0.216216 5:0.176471 6:-0.769912 7:-0.492474 8:-0.562206 9:-0.481238 10:-0.65421 
-59049 1:1 2:-1 3:-1 4:0.216216 5:0.142857 6:-0.769912 7:-0.460599 8:-0.547411 9:-0.62607 10:-0.554559 
-59049 1:-1 2:-1 3:1 4:0.283784 5:0.226891 6:-0.725664 7:-0.35541 8:-0.335575 9:-0.526004 10:-0.59442 
-6368.9106475242161 1:-1 2:-1 3:1 4:0.202703 5:0.092437 6:-0.79646 7:-0.530724 8:-0.559516 9:-0.553654 10:-0.718984 
-59049 1:-1 2:1 3:-1 4:0.283784 5:0.260504 6:-0.778761 7:-0.347618 8:-0.458642 9:-0.540487 10:-0.438964 
-59049 1:1 2:-1 3:-1 4:-0.0675676 5:-0.0420168 6:-0.79646 7:-0.702851 8:-0.765972 9:-0.756419 10:-0.733931 
-59049 1:-1 2:1 3:-1 4:0.364865 5:0.310924 6:-0.743363 7:-0.37241 8:-0.449899 9:-0.523371 10:-0.519681 
-59049 1:-1 2:1 3:-1 4:0.283784 5:0.210084 6:-0.761062 7:-0.460599 8:-0.573638 9:-0.448321 10:-0.604385 
-59049 1:1 2:-1 3:-1 4:0.418919 5:0.378151 6:-0.646018 7:-0.109616 8:-0.139879 9:-0.478604 10:-0.29148 
-59049 1:1 2:-1 3:-1 4:0.648649 5:0.647059 6:-0.637168 7:0.268284 8:0.0941493 9:0.0941409 10:-0.0842053 
-59049 1:1 2:-1 3:-1 4:0.0135135 5:0.00840336 6:-0.79646 7:-0.662121 8:-0.715535 9:-0.726136 10:-0.704036 
-59049 1:-1 2:1 3:-1 4:-0.0810811 5:-0.159664 6:-0.769912 7:-0.774748 8:-0.825824 9:-0.802502 10:-0.793722 
-59049 1:-1 2:1 3:-1 4:0.121622 5:0.0756303 6:-0.734513 7:-0.593767 8:-0.705447 9:-0.62212 10:-0.624315 
-59049 1:-1 2:-1 3:1 4:0.256757 5:0.243697 6:-0.752212 7:-0.475828 8:-0.570948 9:-0.63397 10:-0.504733 
-33771.038153948488 1:1 2:-1 3:-1 4:-0.283784 5:-0.327731 6:-0.831858 7:-0.85054 8:-0.892401 9:-0.911784 10:-0.863478 
-59049 1:1 2:-1 3:-1 4:0.445946 5:0.394958 6:-0.707965 7:-0.256242 8:-0.33154 9:-0.364055 10:-0.470852 
-59049 1:-1 2:1 3:-1 4:0.0405405 5:0.0252101 6:-0.79646 7:-0.664601 8:-0.718225 9:-0.724819 10:-0.684106 
-59049 1:1 2:-1 3:-1 4:0.391892 5:0.411765 6:-0.707965 7:-0.238534 8:-0.390047 9:-0.358789 10:-0.386148 
-59049 1:-1 2:-1 3:1 4:0.027027 5:0.00840336 6:-0.778761 7:-0.624225 8:-0.698722 9:-0.669519 10:-0.711011 
-59049 1:1 2:-1 3:-1 4:0.554054 5:0.546218 6:-0.778761 7:-0.16522 8:-0.297243 9:-0.25609 10:-0.350274 
-59049 1:-1 2:1 3:-1 4:0.540541 5:0.512605 6:-0.707965 7:0.0132814 8:-0.0813719 9:-0.190257 10:-0.333333 
-59049 1:1 2:-1 3:-1 4:0.202703 5:0.109244 6:-0.752212 7:-0.534266 8:-0.667115 9:-0.465438 10:-0.684106 
-59049 1:1 2:-1 3:-1 4:0.243243 5:0.260504 6:-0.752212 7:-0.493891 8:-0.61735 9:-0.581303 10:-0.573493 
-59049 1:-1 2:1 3:-1 4:0.405405 5:0.361345 6:-0.752212 7:-0.289888 8:-0.375252 9:-0.449638 10:-0.501744 
-59049 1:-1 2:-1 3:1 4:0.27027 5:0.226891 6:-0.707965 7:-0.368514 8:-0.431742 9:-0.423305 10:-0.54858 
-59049 1:1 2:-1 3:-1 4:0.337838 5:0.310924 6:-0.752212 7:-0.248096 8:-0.293208 9:-0.423305 10:-0.524664 
-59049 1:1 2:-1 3:-1 4:0.0135135 5:-0.0252101 6:-0.814159 7:-0.709934 8:-0.759247 9:-0.705069 10:-0.733931 
-59049 1:1 2:-1 3:-1 4:0.5 5:0.428571 6:-0.707965 7:-0.0904905 8:-0.188971 9:-0.287689 10:-0.305431 
-59049 1:-1 2:1 3:-1 4:0.378378 5:0.277311 6:-0.752212 7:-0.508766 8:-0.586416 9:-0.661619 10:-0.555556 
-59049 1:1 2:-1 3:-1 4:0.351351 5:0.394958 6:-0.734513 7:-0.308305 8:-0.395427 9:-0.485188 10:-0.452915 
-18417.01863223386 1:1 2:-1 3:-1 4:0.743243 5:0.714286 6:-0.743363 7:-0.160616 8:-0.071957 9:-0.489138 10:-0.467862 
-59049 1:-1 2:-1 3:1 4:0.256757 5:0.260504 6:-0.699115 7:-0.409244 8:-0.500336 9:-0.523371 10:-0.524664 
-59049 1:1 2:-1 3:-1 4:0.364865 5:0.327731 6:-0.787611 7:-0.386223 8:-0.439139 9:-0.612903 10:-0.483807 
-59049 1:1 2:-1 3:-1 4:0.540541 5:0.478992 6:-0.734513 7:-0.144679 8:-0.190316 9:-0.415405 10:-0.327354 
-59049 1:1 2:-1 3:-1 4:0.418919 5:0.327731 6:-0.743363 7:-0.380202 8:-0.419637 9:-0.593153 10:-0.524664 
-59049 1:1 2:-1 3:-1 4:0.5 5:0.529412 6:-0.699115 7:-0.159554 8:-0.340282 9:-0.194207 10:-0.309417 
-59049 1:-1 2:1 3:-1 4:0.22973 5:0.243697 6:-0.734513 7:-0.399681 8:-0.560188 9:-0.390388 10:-0.600399 
-59049 1:1 2:-1 3:-1 4:0.22973 5:0.176471 6:-0.778761 7:-0.539933 8:-0.63618 9:-0.57867 10:-0.632287 
-59049 1:-1 2:1 3:-1 4:0.0675676 5:0.0252101 6:-0.823009 7:-0.668142 8:-0.781439 9:-0.766952 10:-0.726956 
-59049 1:-1 2:1 3:-1 4:0.351351 5:0.378151 6:-0.690265 7:-0.22295 8:-0.364492 9:-0.469388 10:-0.305431 
-59049 1:-1 2:1 3:-1 4:0.432432 5:0.394958 6:-0.707965 7:-0.167345 8:-0.179556 9:-0.402238 10:-0.421026 
-59049 1:1 2:-1 3:-1 4:0.5 5:0.344538 6:-0.734513 7:-0.199929 8:-0.354405 9:-0.278473 10:-0.395117 
-59049 1:1 2:-1 3:-1 4:0.445946 5:0.445378 6:-0.743363 7:-0.0589694 8:0.0517821 9:-0.407505 10:-0.431988 
-59049 1:-1 2:1 3:-1 4:0.405405 5:0.361345 6:-0.716814 7:-0.349035 8:-0.462677 9:-0.468071 10:-0.429995 
-59049 1:-1 2:1 3:-1 4:0.486486 5:0.462185 6:-0.80531 7:-0.196742 8:-0.293208 9:-0.497038 10:-0.42003 
-59049 1:-1 2:-1 3:1 4:0.351351 5:0.310924 6:-0.699115 7:-0.433682 8:-0.533961 9:-0.615537 10:-0.504733 
-59049 1:-1 2:1 3:-1 4:-0.0135135 5:-0.00840336 6:-0.778761 7:-0.715601 8:-0.765972 9:-0.835418 10:-0.745889 
-59049 1:-1 2:1 3:-1 4:0.189189 5:0.226891 6:-0.761062 7:-0.555516 8:-0.62273 9:-0.666886 10:-0.574489 
-59049 1:-1 2:-1 3:1 4:0.351351 5:0.344538 6:-0.716814 7:-0.300514 8:-0.335575 9:-0.487821 10:-0.512706 
-59049 1:-1 2:1 3:-1 4:0.527027 5:0.529412 6:-0.707965 7:0.0511776 8:0.0201748 9:-0.127057 10:-0.363229 
-59049 1:-1 2:1 3:-1 4:0.5 5:0.495798 6:-0.681416 7:-0.153887 8:-0.31002 9:-0.389072 10:-0.206776 
-59049 1:-1 2:1 3:-1 4:0.121622 5:0.00840336 6:-0.716814 7:-0.378431 8:-0.532616 9:-0.435155 10:-0.43996 
-59049 1:-1 2:-1 3:1 4:0.310811 5:0.277311 6:-0.769912 7:-0.451036 8:-0.525219 9:-0.545754 10:-0.560538 
-59049 1:-1 2:1 3:-1 4:0.527027 5:0.411765 6:-0.752212 7:-0.241721 8:-0.342972 9:-0.396972 10:-0.385152 
-59049 1:-1 2:-1 3:1 4:-0.0945946 5:-0.142857 6:-0.80531 7:-0.778289 8:-0.834566 9:-0.785385 10:-0.813652 
-59049 1:-1 2:-1 3:1 4:0.324324 5:0.277311 6:-0.743363 7:-0.403223 8:-0.466711 9:-0.585253 10:-0.494768 
-59049 1:-1 2:1 3:-1 4:0.432432 5:0.462185 6:-0.734513 7:-0.197804 8:-0.293208 9:-0.304806 10:-0.415047 
-59049 1:1 2:-1 3:-1 4:0.459459 5:0.428571 6:-0.690265 7:-0.209492 8:-0.401479 9:-0.159974 10:-0.405082 
-59049 1:1 2:-1 3:-1 4:0.432432 5:0.462185 6:-0.681416 7:-0.174783 8:-0.386685 9:-0.237656 10:-0.256602 
-59049 1:-1 2:-1 3:1 4:0.135135 5:0.0756303 6:-0.752212 7:-0.651496 8:-0.757902 9:-0.744569 10:-0.622322 
-59049 1:-1 2:1 3:-1 4:0.0675676 5:0.0420168 6:-0.814159 7:-0.703559 8:-0.782112 9:-0.728769 10:-0.723966 
-59049 1:-1 2:1 3:-1 4:-0.027027 5:-0.0588235 6:-0.80531 7:-0.732247 8:-0.773369 9:-0.774852 10:-0.783757 
-59049 1:1 2:-1 3:-1 4:0.135135 5:0.142857 6:-0.787611 7:-0.609704 8:-0.700067 9:-0.639236 10:-0.670154 
-59049 1:-1 2:1 3:-1 4:0.432432 5:0.411765 6:-0.690265 7:-0.239242 8:-0.378615 9:-0.423305 10:-0.335326 
-59049 1:-1 2:1 3:-1 4:0.662162 5:0.663866 6:-0.681416 7:0.173721 8:0.170814 9:-0.302172 10:-0.127055 
-59049 1:-1 2:1 3:-1 4:-0.0135135 5:-0.0420168 6:-0.814159 7:-0.743581 8:-0.802286 9:-0.789335 10:-0.768809 
-59049 1:1 2:-1 3:-1 4:0.608108 5:0.579832 6:-0.699115 7:-0.00938551 8:-0.0396772 9:-0.20474 10:-0.231689 
-59049 1:-1 2:1 3:-1 4:0.148649 5:0.159664 6:-0.752212 7:-0.532849 8:-0.656355 9:-0.539171 10:-0.564524 
-59049 1:-1 2:-1 3:1 4:0.256757 5:0.142857 6:-0.761062 7:-0.537099 8:-0.637525 9:-0.593153 10:-0.620329 
-59049 1:-1 2:1 3:-1 4:0.0135135 5:0.0252101 6:-0.814159 7:-0.667434 8:-0.72764 9:-0.755102 10:-0.706029 
-59049 1:1 2:-1 3:-1 4:0.351351 5:0.277311 6:-0.752212 7:-0.402515 8:-0.462004 9:-0.498354 10:-0.560538 
-59049 1:1 2:-1 3:-1 4:0.0945946 5:0.109244 6:-0.743363 7:-0.548079 8:-0.607935 9:-0.631336 10:-0.689088 
-59049 1:1 2:-1 3:-1 4:0.391892 5:0.445378 6:-0.725664 7:-0.237471 8:-0.391392 9:-0.360105 10:-0.385152 
-38483.991221169941 1:-1 2:-1 3:1 4:0.135135 5:0.092437 6:-0.761062 7:-0.640517 8:-0.723605 9:-0.694536 10:-0.674141 
-59049 1:-1 2:-1 3:1 4:0.0135135 5:-0.00840336 6:-0.769912 7:-0.613954 8:-0.671822 9:-0.631336 10:-0.72297 
-59049 1:-1 2:1 3:-1 4:0.418919 5:0.361345 6:-0.725664 7:-0.311847 8:-0.427034 9:-0.462804 10:-0.405082 
-59049 1:1 2:-1 3:-1 4:0.351351 5:0.327731 6:-0.761062 7:-0.348681 8:-0.525219 9:-0.450955 10:-0.531639 
-59049 1:-1 2:-1 3:1 4:0.0945946 5:0.0588235 6:-0.778761 7:-0.665663 8:-0.760592 9:-0.728769 10:-0.65421 
-59049 1:-1 2:1 3:-1 4:0.0405405 5:0.0756303 6:-0.787611 7:-0.675226 8:-0.762609 9:-0.711652 10:-0.704036 
-59049 1:1 2:-1 3:-1 4:0.594595 5:0.495798 6:-0.690265 7:-0.0823446 8:-0.184264 9:-0.174457 10:-0.375187 
-59049 1:1 2:-1 3:-1 4:0.432432 5:0.411765 6:-0.725664 7:-0.179033 8:-0.232011 9:-0.354839 10:-0.454908 
-59049 1:1 2:-1 3:-1 4:-0.22973 5:-0.277311 6:-0.840708 7:-0.843811 8:-0.889711 9:-0.861751 10:-0.853513 
-59049 1:-1 2:1 3:-1 4:0.486486 5:0.462185 6:-0.707965 7:-0.203117 8:-0.359785 9:-0.378539 10:-0.368211 
-59049 1:-1 2:1 3:-1 4:0.310811 5:0.344538 6:-0.663717 7:-0.495661 8:-0.620713 9:-0.661619 10:-0.454908 
-59049 1:1 2:-1 3:-1 4:0.608108 5:0.579832 6:-0.654867 7:0.0189481 8:-0.114324 9:-0.296906 10:-0.155954 
-59049 1:-1 2:1 3:-1 4:0.364865 5:0.310924 6:-0.734513 7:-0.39366 8:-0.463349 9:-0.59052 10:-0.498754 
-59049 1:1 2:-1 3:-1 4:0.459459 5:0.411765 6:-0.690265 7:-0.134408 8:-0.189644 9:-0.314022 10:-0.383159 
-59049 1:-1 2:1 3:-1 4:0.527027 5:0.495798 6:-0.734513 7:-0.150345 8:-0.249496 9:-0.393022 10:-0.33433 
-59049 1:-1 2:1 3:-1 4:0.554054 5:0.478992 6:-0.725664 7:-0.0543651 8:-0.174176 9:-0.159974 10:-0.335326 
-59049 1:1 2:-1 3:-1 4:0.5 5:0.428571 6:-0.734513 7:-0.166637 8:-0.303968 9:-0.348255 10:-0.358246 
-59049 1:-1 2:1 3:-1 4:0.513514 5:0.495798 6:-0.663717 7:-0.0876572 8:-0.203766 9:-0.199473 10:-0.301445 
-59049 1:-1 2:-1 3:1 4:0.283784 5:0.378151 6:-0.734513 7:-0.33841 8:-0.354405 9:-0.54312 10:-0.517688 
-59049 1:-1 2:1 3:-1 4:0.364865 5:0.277311 6:-0.734513 7:-0.407119 8:-0.532616 9:-0.456221 10:-0.620329 
-59049 1:-1 2:-1 3:1 4:0.0135135 5:0.00840336 6:-0.80531 7:-0.676642 8:-0.740417 9:-0.824885 10:-0.723966 
-8915.8224863121868 1:-1 2:-1 3:1 4:-0.162162 5:-0.243697 6:-0.778761 7:-0.828582 8:-0.864156 9:-0.901251 10:-0.833582 
-59049 1:-1 2:1 3:-1 4:0.22973 5:0.243697 6:-0.769912 7:-0.46414 8:-0.564223 9:-0.482554 10:-0.59442 
-59049 1:-1 2:-1 3:1 4:0.486486 5:0.445378 6:-0.734513 7:-0.261909 8:-0.412239 9:-0.246873 10:-0.448929 
-59049 1:-1 2:1 3:-1 4:0.445946 5:0.445378 6:-0.681416 7:-0.0950947 8:-0.229993 9:-0.249506 10:-0.295466 
-59049 1:-1 2:1 3:-1 4:0.554054 5:0.495798 6:-0.672566 7:0.0196565 8:-0.00470746 9:-0.223173 10:-0.323368 
-59049 1:-1 2:1 3:-1 4:0.445946 5:0.327731 6:-0.716814 7:-0.196742 8:-0.444519 9:-0.182357 10:-0.405082 
-59049 1:1 2:-1 3:-1 4:0.108108 5:0.0420168 6:-0.725664 7:-0.272534 8:-0.431742 9:-0.399605 10:-0.379173 
-59049 1:-1 2:1 3:-1 4:0.297297 5:0.310924 6:-0.690265 7:-0.189304 8:-0.260256 9:-0.358789 10:-0.447932 
-59049 1:1 2:-1 3:-1 4:0.351351 5:0.327731 6:-0.725664 7:-0.32991 8:-0.424344 9:-0.458855 10:-0.486796 
-59049 1:-1 2:1 3:-1 4:0.405405 5:0.344538 6:-0.716814 7:-0.264742 8:-0.39341 9:-0.302172 10:-0.428999 
-59049 1:-1 2:1 3:-1 4:0.608108 5:0.512605 6:-0.637168 7:-0.0348858 8:-0.184264 9:-0.20474 10:-0.299452 
-59049 1:-1 2:1 3:-1 4:0.554054 5:0.462185 6:-0.725664 7:-0.206658 8:-0.268325 9:-0.400922 10:-0.394121 
-59049 1:1 2:-1 3:-1 4:0.148649 5:0.176471 6:-0.752212 7:-0.565433 8:-0.677202 9:-0.644503 10:-0.59442 
-59049 1:1 2:-1 3:-1 4:0.0675676 5:0.0756303 6:-0.79646 7:-0.699309 8:-0.774714 9:-0.802502 10:-0.704036 
-59049 1:-1 2:-1 3:1 4:-0.189189 5:-0.210084 6:-0.823009 7:-0.84629 8:-0.876933 9:-0.901251 10:-0.853513 
-59049 1:1 2:-1 3:-1 4:-0.162162 5:-0.176471 6:-0.831858 7:-0.831415 8:-0.882313 9:-0.845951 10:-0.833582 
-59049 1:1 2:-1 3:-1 4:0.378378 5:0.344538 6:-0.752212 7:-0.314326 8:-0.37996 9:-0.514154 10:-0.415047 
-59049 1:1 2:-1 3:-1 4:0.432432 5:0.411765 6:-0.743363 7:-0.375243 8:-0.485541 9:-0.499671 10:-0.464873 
-59049 1:-1 2:1 3:-1 4:0.540541 5:0.462185 6:-0.716814 7:-0.191075 8:-0.326833 9:-0.24029 10:-0.367215 
-59049 1:-1 2:-1 3:1 4:0.162162 5:0.159664 6:-0.778761 7:-0.604392 8:-0.69805 9:-0.623436 10:-0.664175 
-59049 1:1 2:-1 3:-1 4:0.0675676 5:0.12605 6:-0.734513 7:-0.551266 8:-0.707465 9:-0.768269 10:-0.494768 
-59049 1:-1 2:1 3:-1 4:0.567568 5:0.563025 6:-0.646018 7:0.0947406 8:-0.0423672 9:-0.174457 10:-0.0742402 
-23525.454550724189 1:-1 2:1 3:-1 4:0.351351 5:0.361345 6:-0.716814 7:-0.220117 8:-0.27774 9:-0.419355 10:-0.506726 
-1917.1877503593314 1:-1 2:1 3:-1 4:0.567568 5:0.361345 6:-0.716814 7:0.0568443 8:-0.0739744 9:-0.129691 10:-0.639263 
-59049 1:-1 2:1 3:-1 4:0.364865 5:0.327731 6:-0.725664 7:-0.34266 8:-0.483524 9:-0.353522 10:-0.474838 
-2946.3484874383594 1:-1 2:-1 3:1 4:-0.364865 5:-0.428571 6:-0.876106 7:-0.926687 8:-0.416274 9:-0.961817 10:-0.923269 
-59049 1:-1 2:-1 3:1 4:0.445946 5:0.378151 6:-0.734513 7:-0.321055 8:-0.396772 9:-0.54707 10:-0.432985 
-59049 1:-1 2:-1 3:1 4:-0.0675676 5:-0.109244 6:-0.80531 7:-0.782539 8:-0.846671 9:-0.831468 10:-0.814649 
-59049 1:-1 2:-1 3:1 4:0.378378 5:0.327731 6:-0.734513 7:-0.369931 8:-0.466711 9:-0.465438 10:-0.498754 
-59049 1:1 2:-1 3:-1 4:0.445946 5:0.394958 6:-0.699115 7:-0.209138 8:-0.298588 9:-0.368005 10:-0.385152 
-59049 1:1 2:-1 3:-1 4:0.540541 5:0.462185 6:-0.716814 7:-0.115282 8:-0.281103 9:-0.120474 10:-0.372197 
-59049 1:1 2:-1 3:-1 4:0.364865 5:0.327731 6:-0.752212 7:-0.320347 8:-0.34768 9:-0.523371 10:-0.498754 
-59049 1:-1 2:1 3:-1 4:0.148649 5:0.142857 6:-0.734513 7:-0.495307 8:-0.566241 9:-0.545754 10:-0.61435 
-59049 1:1 2:-1 3:-1 4:0.418919 5:0.529412 6:-0.672566 7:-0.0911989 8:-0.181574 9:-0.278473 10:-0.375187 
-59049 1:-1 2:1 3:-1 4:0.351351 5:0.310924 6:-0.752212 7:-0.334868 8:-0.484196 9:-0.337722 10:-0.434978 
-59049 1:1 2:-1 3:-1 4:0.472973 5:0.327731 6:-0.646018 7:-0.39366 8:-0.425017 9:-0.599737 10:-0.523667 
-59049 1:1 2:-1 3:-1 4:0.405405 5:0.378151 6:-0.734513 7:-0.350452 8:-0.418292 9:-0.536537 10:-0.480817 
-59049 1:1 2:-1 3:-1 4:0.0540541 5:0.0756303 6:-0.80531 7:-0.647246 8:-0.718897 9:-0.703752 10:-0.703039 
-59049 1:1 2:-1 3:-1 4:0.0675676 5:-0.00840336 6:-0.823009 7:-0.663184 8:-0.747814 9:-0.768269 10:-0.65421 
-59049 1:-1 2:1 3:-1 4:0.418919 5:0.378151 6:-0.734513 7:-0.220471 8:-0.267653 9:-0.311389 10:-0.504733 
-59049 1:1 2:-1 3:-1 4:-0.27027 5:-0.277311 6:-0.831858 7:-0.861874 8:-0.911903 9:-0.869651 10:-0.863478 
-59049 1:1 2:-1 3:-1 4:0.554054 5:0.563025 6:-0.690265 7:-0.105012 8:-0.174176 9:-0.270573 10:-0.333333 
-59049 1:-1 2:1 3:-1 4:0.175676 5:0.0588235 6:-0.628319 7:-0.16345 8:-0.31809 9:-0.23239 10:-0.319382 
-59049 1:-1 2:1 3:-1 4:0.189189 5:0.142857 6:-0.761062 7:-0.635913 8:-0.73033 9:-0.65372 10:-0.68012 
-59049 1:-1 2:1 3:-1 4:0.337838 5:0.260504 6:-0.716814 7:-0.426952 8:-0.480161 9:-0.58262 10:-0.547583 
-59049 1:-1 2:-1 3:1 4:0.216216 5:0.176471 6:-0.743363 7:-0.508057 8:-0.591796 9:-0.597103 10:-0.584454 
-59049 1:-1 2:1 3:-1 4:0.689189 5:0.579832 6:-0.663717 7:0.164866 8:0.147949 9:-0.19289 10:-0.206776 
-59049 1:-1 2:-1 3:1 4:0.148649 5:0.159664 6:-0.787611 7:-0.565079 8:-0.650303 9:-0.624753 10:-0.617339 
-20148.18044381143 1:1 2:-1 3:-1 4:-0.243243 5:-0.294118 6:-0.840708 7:-0.882415 8:-0.934095 9:-0.893351 10:-0.877429 
-59049 1:1 2:-1 3:-1 4:0.256757 5:0.277311 6:-0.752212 7:-0.48114 8:-0.557498 9:-0.581303 10:-0.578475 
-59049 1:1 2:-1 3:-1 4:0.202703 5:0.159664 6:-0.743363 7:-0.45139 8:-0.527236 9:-0.515471 10:-0.63428 
-59049 1:-1 2:1 3:-1 4:0.432432 5:0.344538 6:-0.743363 7:-0.390827 8:-0.552118 9:-0.478604 10:-0.405082 
-59049 1:1 2:-1 3:-1 4:-0.0810811 5:-0.142857 6:-0.840708 7:-0.77156 8:-0.825824 9:-0.807768 10:-0.773792 
-59049 1:-1 2:1 3:-1 4:0.364865 5:0.361345 6:-0.681416 7:-0.256596 8:-0.450572 9:-0.317972 10:-0.452915 
-59049 1:1 2:-1 3:-1 4:0.0540541 5:0.0252101 6:-0.814159 7:-0.696122 8:-0.770007 9:-0.719552 10:-0.65421 
-59049 1:1 2:-1 3:-1 5:-0.0420168 6:-0.787611 7:-0.684434 8:-0.741762 9:-0.728769 10:-0.743896 
-59049 1:1 2:-1 3:-1 4:-0.189189 5:-0.159664 6:-0.840708 7:-0.77156 8:-0.813719 9:-0.852535 10:-0.813652 
-59049 1:-1 2:-1 3:1 4:0.216216 5:0.109244 6:-0.769912 7:-0.571454 8:-0.6846 9:-0.672153 10:-0.61435 
-59049 1:-1 2:-1 3:1 4:0.472973 5:0.394958 6:-0.752212 7:-0.394723 8:-0.517821 9:-0.579987 10:-0.415047 
-59049 1:-1 2:-1 3:1 4:0.108108 5:0.0756303 6:-0.752212 7:-0.632371 8:-0.732347 9:-0.677419 10:-0.664175 
-59049 1:-1 2:1 3:-1 4:0.554054 5:0.495798 6:-0.716814 7:-0.0221356 8:-0.0571621 9:-0.20079 10:-0.366218 
-18389.152209574138 1:-1 2:-1 3:1 4:-0.243243 5:-0.243697 6:-0.849558 7:-0.795644 8:-0.873571 9:-0.897301 10:-0.773792 
-59049 1:-1 2:1 3:-1 4:0.0945946 5:0.0420168 6:-0.761062 7:-0.548433 8:-0.605245 9:-0.703752 10:-0.65421 
-59049 1:-1 2:-1 3:1 4:0.351351 5:0.327731 6:-0.778761 7:-0.448911 8:-0.560861 9:-0.506254 10:-0.534629 
-59049 1:-1 2:1 3:-1 4:0.567568 5:0.462185 6:-0.716814 7:-0.148574 8:-0.267653 9:-0.312706 10:-0.360239 
-59049 1:1 2:-1 3:-1 4:0.108108 5:0.12605 6:-0.761062 7:-0.56437 8:-0.665098 9:-0.647136 10:-0.67713 
-59049 1:1 2:-1 3:-1 4:0.378378 5:0.378151 6:-0.716814 7:-0.324597 8:-0.383322 9:-0.379855 10:-0.474838 
-59049 1:-1 2:1 3:-1 4:0.405405 5:0.394958 6:-0.725664 7:-0.167345 8:-0.27236 9:-0.292956 10:-0.385152 
-59049 1:-1 2:1 3:-1 4:0.5 5:0.445378 6:-0.699115 7:-0.0660528 8:-0.201748 9:-0.0928242 10:-0.315396 
-59049 1:1 2:-1 3:-1 4:0.405405 5:0.344538 6:-0.734513 7:-0.261909 8:-0.30464 9:-0.420671 10:-0.464873 
-59049 1:-1 2:-1 3:1 4:0.0135135 5:-0.0420168 6:-0.778761 7:-0.714893 8:-0.771352 9:-0.816985 10:-0.734928 
-59049 1:-1 2:1 3:-1 4:0.391892 5:0.344538 6:-0.743363 7:-0.248451 8:-0.308003 9:-0.357472 10:-0.504733 
-49855.8216267686 1:-1 2:-1 3:1 4:0.0675676 5:0.0756303 6:-0.787611 7:-0.656455 8:-0.737727 9:-0.740619 10:-0.733931 
-59049 1:1 2:-1 3:-1 4:0.594595 5:0.579832 6:-0.716814 7:-0.0359483 8:-0.155346 9:-0.266623 10:-0.325361 
-59049 1:-1 2:1 3:-1 4:0.0810811 5:0.0252101 6:-0.778761 7:-0.684788 8:-0.773369 9:-0.788018 10:-0.723966 
-59049 1:1 2:-1 3:-1 4:0.418919 5:0.361345 6:-0.734513 7:-0.118116 8:-0.283793 9:-0.281106 10:-0.425012 
-59049 1:1 2:-1 3:-1 4:0.418919 5:0.344538 6:-0.725664 7:-0.332035 8:-0.414257 9:-0.452271 10:-0.504733 
-59049 1:1 2:-1 3:-1 4:0.216216 5:0.159664 6:-0.725664 7:-0.50062 8:-0.622058 9:-0.57867 10:-0.554559 
-59049 1:-1 2:1 3:-1 4:0.310811 5:0.260504 6:-0.734513 7:-0.376306 8:-0.535306 9:-0.548387 10:-0.385152 
-59049 1:1 2:-1 3:-1 4:0.324324 5:0.310924 6:-0.743363 7:-0.345847 8:-0.416947 9:-0.443055 10:-0.509716 
-59049 1:-1 2:1 3:-1 4:0.472973 5:0.445378 6:-0.725664 7:-0.155304 8:-0.314728 9:-0.287689 10:-0.301445 
-59049 1:-1 2:1 3:-1 4:0.432432 5:0.546218 6:-0.699115 7:-0.0883655 8:-0.194351 9:-0.225806 10:-0.342302 
-59049 1:1 2:-1 3:-1 4:0.445946 5:0.445378 6:-0.699115 7:-0.0940322 8:-0.198386 9:-0.202107 10:-0.345291 
-59049 1:-1 2:1 3:-1 4:0.513514 5:0.529412 6:-0.699115 7:-0.134762 8:-0.28581 9:-0.287689 10:-0.297459 
-59049 1:1 2:-1 3:-1 4:0.391892 5:0.277311 6:-0.707965 7:-0.309722 8:-0.392737 9:-0.370639 10:-0.534629 
-59049 1:-1 2:-1 3:1 4:0.162162 5:0.243697 6:-0.778761 7:-0.568266 8:-0.671822 9:-0.639236 10:-0.604385 
-59049 1:-1 2:-1 3:1 4:-0.0540541 5:-0.092437 6:-0.823009 7:-0.719497 8:-0.841964 9:-0.831468 10:-0.814649 
-59049 1:1 2:-1 3:-1 4:-0.0405405 5:-0.0588235 6:-0.79646 7:-0.71383 8:-0.778077 9:-0.755102 10:-0.733931 
-59049 1:-1 2:1 3:-1 4:0.486486 5:0.462185 6:-0.725664 7:-0.211617 8:-0.35037 9:-0.271889 10:-0.386148 
-59049 1:-1 2:1 3:-1 4:0.405405 5:0.277311 6:-0.734513 7:-0.36391 8:-0.439812 9:-0.553654 10:-0.474838 
-59049 1:-1 2:1 3:-1 4:0.202703 5:0.159664 6:-0.778761 7:-0.515141 8:-0.604573 9:-0.549704 10:-0.63428 
-59049 1:-1 2:-1 3:1 4:0.0135135 5:0.0252101 6:-0.769912 7:-0.66283 8:-0.744452 9:-0.666886 10:-0.729945 
-59049 1:-1 2:1 3:-1 4:0.337838 5:0.277311 6:-0.752212 7:-0.393306 8:-0.476126 9:-0.485188 10:-0.54559 
-59049 1:1 2:-1 3:-1 4:0.202703 5:0.092437 6:-0.761062 7:-0.588808 8:-0.664425 9:-0.589203 10:-0.65421 
-59049 1:-1 2:1 3:-1 4:0.351351 5:0.260504 6:-0.725664 7:-0.437932 8:-0.532616 9:-0.494404 10:-0.564524 
-59049 1:-1 2:1 3:-1 4:0.243243 5:0.310924 6:-0.778761 7:-0.383389 8:-0.440484 9:-0.477288 10:-0.524664 
-24302.250571051885 1:-1 2:1 3:-1 4:-0.202703 5:-0.210084 6:-0.79646 7:-0.824332 8:-0.852051 9:-0.851218 10:-0.853513 
-59049 1:-1 2:1 3:-1 4:0.0810811 5:0.092437 6:-0.761062 7:-0.657163 8:-0.767989 9:-0.816985 10:-0.63428 
-59049 1:-1 2:1 3:-1 4:-0.027027 5:-0.092437 6:-0.80531 7:-0.694351 8:-0.761937 9:-0.741935 10:-0.694071 
-59049 1:-1 2:1 3:-1 4:0.189189 5:0.12605 6:-0.769912 7:-0.593767 8:-0.735709 9:-0.658986 10:-0.635277 
-455.87223683249431 1:-1 2:-1 3:1 4:-0.702703 5:0.0756303 6:-0.787611 7:-0.672392 8:-0.737727 9:-0.726136 10:-0.704036 
-59049 1:1 2:-1 3:-1 4:0.540541 5:0.529412 6:-0.716814 7:-0.0593235 8:-0.104909 9:-0.187623 10:-0.371201 
-59049 1:-1 2:1 3:-1 4:0.027027 5:0.0420168 6:-0.79646 7:-0.696476 8:-0.753867 9:-0.716919 10:-0.754858 
-21427.769052562668 1:1 2:-1 3:-1 4:-0.162162 5:-0.193277 6:-0.831858 7:-0.764123 8:-0.803631 9:-0.753785 10:-0.823617 
-59049 1:1 2:-1 3:-1 4:0.0945946 5:0.0756303 6:-0.743363 7:-0.451036 8:-0.710827 9:-0.658986 10:-0.664175 
-59049 1:-1 2:1 3:-1 4:0.391892 5:0.361345 6:-0.743363 7:-0.299805 8:-0.392065 9:-0.420671 10:-0.454908 
-59049 1:-1 2:-1 3:1 4:0.108108 5:0.0420168 6:-0.752212 7:-0.684434 8:-0.746469 9:-0.757735 10:-0.543597 
-59049 1:1 2:-1 3:-1 4:0.0945946 5:0.00840336 6:-0.716814 7:-0.672747 8:-0.704102 9:-0.722186 10:-0.526657 
-59049 1:-1 2:1 3:-1 4:0.283784 5:0.243697 6:-0.743363 7:-0.436869 8:-0.601883 9:-0.60632 10:-0.474838 
-59049 1:-1 2:-1 3:1 4:0.283784 5:0.210084 6:-0.743363 7:-0.447848 8:-0.499664 9:-0.579987 10:-0.561535 
-59049 1:-1 2:-1 3:1 4:0.108108 5:0.0420168 6:-0.814159 7:-0.632725 8:-0.739072 9:-0.677419 10:-0.640259 
-59049 1:-1 2:1 3:-1 5:-0.092437 6:-0.778761 7:-0.679122 8:-0.761264 9:-0.705069 10:-0.723966 
-59049 1:1 2:-1 3:-1 4:0.324324 5:0.344538 6:-0.734513 7:-0.321764 8:-0.387357 9:-0.370639 10:-0.544594 
-59049 1:-1 2:1 3:-1 4:0.283784 5:0.260504 6:-0.752212 7:-0.496016 8:-0.656355 9:-0.511521 10:-0.554559 
-59049 1:-1 2:-1 3:1 4:0.162162 5:0.109244 6:-0.787611 7:-0.576058 8:-0.679892 9:-0.627386 10:-0.63428 
-59049 1:-1 2:-1 3:1 4:0.148649 5:0.0756303 6:-0.743363 7:-0.590933 8:-0.679892 9:-0.639236 10:-0.63428 
-59049 1:1 2:-1 3:-1 4:0.310811 5:0.327731 6:-0.743363 7:-0.36816 8:-0.478816 9:-0.449638 10:-0.476831 
-30281.697733853656 1:-1 2:1 3:-1 4:0.432432 5:0.428571 6:-0.752212 7:-0.299451 8:-0.364492 9:-0.383805 10:-0.524664 
-59049 1:-1 2:-1 3:1 4:0.445946 5:0.378151 6:-0.778761 7:-0.347972 8:-0.414929 9:-0.500987 10:-0.484803 
-59049 1:-1 2:1 3:-1 4:0.324324 5:0.327731 6:-0.690265 7:-0.286347 8:-0.400134 9:-0.375905 10:-0.475835 
-59049 1:-1 2:1 3:-1 4:0.162162 5:0.12605 6:-0.769912 7:-0.523995 8:-0.575656 9:-0.63002 10:-0.647235 
-59049 1:1 2:-1 3:-1 4:0.378378 5:0.378151 6:-0.725664 7:-0.353639 8:-0.388702 9:-0.483871 10:-0.534629 
-59049 1:-1 2:-1 3:1 4:-0.22973 5:-0.243697 6:-0.814159 7:-0.860457 8:-0.907868 9:-0.882818 10:-0.843548 
-59049 1:-1 2:1 3:-1 4:-0.0405405 5:-0.092437 6:-0.787611 7:-0.686205 8:-0.779422 9:-0.739302 10:-0.694071 
-59049 1:1 2:-1 3:-1 4:0.5 5:0.596639 6:-0.681416 7:-0.0950947 8:-0.170141 9:-0.327189 10:-0.375187 
-59049 1:-1 2:1 3:-1 4:0.418919 5:0.411765 6:-0.761062 7:0.0189481 8:-0.209818 9:-0.498354 10:-0.370204 
-59049 1:1 2:-1 3:-1 4:0.364865 5:0.344538 6:-0.654867 7:0.315389 8:0.26967 9:0.120474 10:-0.124066 
-59049 1:-1 2:1 3:-1 4:0.310811 5:0.344538 6:-0.716814 7:-0.316451 8:-0.392737 9:-0.456221 10:-0.456901 
-59049 1:-1 2:1 3:-1 4:0.324324 5:0.294118 6:-0.734513 7:-0.390119 8:-0.416274 9:-0.608953 10:-0.464873 
-59049 1:-1 2:1 3:-1 4:0.22973 5:0.226891 6:-0.761062 7:-0.52187 8:-0.656355 9:-0.628703 10:-0.584454 
-59049 1:-1 2:1 3:-1 4:0.243243 5:0.193277 6:-0.769912 7:-0.495307 8:-0.550773 9:-0.62212 10:-0.589437 
-59049 1:1 2:-1 3:-1 4:0.351351 5:0.344538 6:-0.707965 7:-0.387285 8:-0.494956 9:-0.526004 10:-0.468859 
-59049 1:-1 2:1 3:-1 4:-0.0405405 5:-0.0420168 6:-0.80531 7:-0.730831 8:-0.794217 9:-0.749835 10:-0.78575 
-59049 1:1 2:-1 3:-1 4:0.324324 5:0.294118 6:-0.778761 7:-0.433327 8:-0.517821 9:-0.520737 10:-0.574489 
-59049 1:-1 2:1 3:-1 4:0.027027 5:-0.00840336 6:-0.787611 7:-0.678767 8:-0.739744 9:-0.726136 10:-0.728949 
-34308.000539723391 1:1 2:-1 3:-1 4:0.310811 5:0.260504 6:-0.743363 7:-0.364264 8:-0.37727 9:-0.533904 10:-0.536622 
-59049 1:-1 2:1 3:-1 4:0.22973 5:0.142857 6:-0.743363 7:-0.452453 8:-0.587088 9:-0.556287 10:-0.494768 
-59049 1:1 2:-1 3:-1 4:0.337838 5:0.294118 6:-0.831858 7:-0.415619 8:-0.544721 9:-0.418038 10:-0.534629 
-59049 1:1 2:-1 3:-1 4:0.513514 5:0.529412 6:-0.672566 7:-0.074907 8:-0.26967 9:-0.163924 10:-0.251619 
-59049 1:1 2:-1 3:-1 4:0.391892 5:0.361345 6:-0.752212 7:-0.290243 8:-0.33423 9:-0.431205 10:-0.484803 
-59049 1:1 2:-1 3:-1 4:0.364865 5:0.344538 6:-0.734513 7:-0.212325 8:-0.360457 9:-0.433838 10:-0.474838 
-59049 1:-1 2:1 3:-1 4:0.310811 5:0.193277 6:-0.716814 7:-0.419515 8:-0.541358 9:-0.516787 10:-0.498754 
-59049 1:-1 2:-1 3:1 4:-0.189189 5:-0.159664 6:-0.79646 7:-0.809102 8:-0.877606 9:-0.806452 10:-0.823617 
-59049 1:-1 2:1 3:-1 4:0.162162 5:0.159664 6:-0.707965 7:-0.485036 8:-0.64156 9:-0.593153 10:-0.504733 
-59049 1:1 2:-1 3:-1 4:0.527027 5:0.445378 6:-0.716814 7:-0.288826 8:-0.38803 9:-0.410138 10:-0.437967 
-59049 1:1 2:-1 3:-1 4:0.0675676 5:0.092437 6:-0.743363 7:-0.585975 8:-0.680565 9:-0.62212 10:-0.63428 
-59049 1:1 2:-1 3:-1 4:0.324324 5:0.327731 6:-0.716814 7:-0.367452 8:-0.443174 9:-0.487821 10:-0.512706 
-59049 1:1 2:-1 3:-1 4:0.351351 5:0.428571 6:-0.734513 7:-0.330972 8:-0.415602 9:-0.315339 10:-0.503737 
-59049 1:-1 2:1 3:-1 4:-0.256757 5:-0.294118 6:-0.840708 7:-0.870019 8:-0.901143 9:-0.892034 10:-0.883408 
-59049 1:-1 2:1 3:-1 4:0.743243 5:0.663866 6:-0.654867 7:0.466974 8:0.439812 9:0.121791 10:-0.00348779 
-59049 1:-1 2:1 3:-1 4:0.432432 5:0.411765 6:-0.707965 7:-0.253409 8:-0.418964 9:-0.423305 10:-0.29148 
-59049 1:1 2:-1 3:-1 4:0.486486 5:0.495798 6:-0.769912 7:-0.234992 8:-0.223268 9:-0.462804 10:-0.504733 
-59049 1:1 2:-1 3:-1 4:-0.324324 5:-0.378151 6:-0.867257 7:-0.891624 8:-0.937458 9:-0.907834 10:-0.883408 
-59049 1:1 2:-1 3:-1 4:0.391892 5:0.378151 6:-0.752212 7:-0.260492 8:-0.369872 9:-0.308756 10:-0.478824 
-59049 1:-1 2:-1 3:1 4:0.108108 5:-0.0252101 6:-0.716814 7:-0.385869 8:-0.586416 9:-0.514154 10:-0.367215 
-59049 1:-1 2:-1 3:1 4:0.0540541 5:0.0588235 6:-0.80531 7:-0.686205 8:-0.781439 9:-0.748519 10:-0.672147 
-59049 1:-1 2:1 3:-1 4:0.027027 5:0.0588235 6:-0.814159 7:-0.652559 8:-0.710827 9:-0.673469 10:-0.733931 
-59049 1:-1 2:1 3:-1 4:-0.121622 5:-0.176471 6:-0.79646 7:-0.787144 8:-0.821789 9:-0.878868 10:-0.816642 
-59049 1:1 2:-1 3:-1 4:0.459459 5:0.394958 6:-0.734513 7:-0.231096 8:-0.332213 9:-0.25609 10:-0.467862 
-59049 1:1 2:-1 3:-1 4:0.405405 5:0.277311 6:-0.716814 7:-0.252701 8:-0.429052 9:-0.411455 10:-0.385152 
-59049 1:-1 2:-1 3:1 4:-0.175676 5:-0.210084 6:-0.823009 7:-0.83354 8:-0.856086 9:-0.897301 10:-0.839562 
-36797.429951087499 1:1 2:-1 3:-1 4:0.189189 5:-0.00840336 6:-0.725664 7:-0.347972 8:-0.438467 9:-0.479921 10:-0.458894 
-59049 1:-1 2:1 3:-1 4:0.513514 5:0.462185 6:-0.699115 7:-0.107845 8:-0.277068 9:-0.299539 10:-0.24564 
-59049 1:1 2:-1 3:-1 4:0.378378 5:0.327731 6:-0.681416 7:-0.435098 8:-0.549428 9:-0.512837 10:-0.530643 
-59049 1:-1 2:1 3:-1 4:0.554054 5:0.495798 6:-0.663717 7:0.0355941 8:-0.138534 9:-0.108624 10:-0.156951 
-59049 1:1 2:-1 3:-1 4:0.27027 5:0.226891 6:-0.743363 7:-0.450328 8:-0.497646 9:-0.59447 10:-0.59442 
-59049 1:-1 2:1 3:-1 4:-0.108108 5:-0.159664 6:-0.831858 7:-0.75456 8:-0.805649 9:-0.765635 10:-0.803687 
-59049 1:-1 2:1 3:-1 4:0.581081 5:0.512605 6:-0.663717 7:-0.00655215 8:-0.160054 9:-0.112574 10:-0.256602 
-59049 1:-1 2:1 3:-1 4:0.256757 5:0.226891 6:-0.752212 7:-0.432265 8:-0.490249 9:-0.526004 10:-0.584454 
-59049 1:-1 2:-1 3:1 4:0.162162 5:0.12605 6:-0.672566 7:-0.567558 8:-0.642233 9:-0.627386 10:-0.660189 
-59049 1:1 2:-1 3:-1 4:0.148649 5:0.12605 6:-0.761062 7:-0.447848 8:-0.515804 9:-0.58657 10:-0.527653 
-59049 1:-1 2:-1 3:1 4:-0.135135 5:-0.092437 6:-0.814159 7:-0.784664 8:-0.852051 9:-0.807768 10:-0.813652 
-59049 1:1 2:-1 3:-1 4:0.202703 5:0.159664 6:-0.787611 7:-0.590579 8:-0.686617 9:-0.655036 10:-0.63428 
-59049 1:-1 2:1 3:-1 4:0.22973 5:0.260504 6:-0.734513 7:-0.476536 8:-0.564223 9:-0.512837 10:-0.612357 
-59049 1:-1 2:-1 3:1 4:0.418919 5:0.310924 6:-0.761062 7:-0.349389 8:-0.402824 9:-0.465438 10:-0.498754 
-59049 1:-1 2:1 3:-1 4:0.310811 5:0.243697 6:-0.778761 7:-0.341243 8:-0.515804 9:-0.440421 10:-0.335326 
-59049 1:1 2:-1 3:-1 4:0.472973 5:0.495798 6:-0.707965 7:-0.0756154 8:-0.146604 9:-0.331139 10:-0.375187 
-59049 1:1 2:-1 3:-1 4:0.283784 5:0.260504 6:-0.734513 7:-0.381973 8:-0.445864 9:-0.499671 10:-0.508719 
-59049 1:-1 2:-1 3:1 4:0.297297 5:0.260504 6:-0.752212 7:-0.458474 8:-0.542703 9:-0.56682 10:-0.544594 
